duongDan,zcrMean,specCenMean,specRolloffMean,mfcc_0_Mean,mfcc_1_Mean,mfcc_2_Mean,mfcc_3_Mean,mfcc_4_Mean,mfcc_5_Mean,mfcc_6_Mean,mfcc_7_Mean,mfcc_8_Mean,mfcc_9_Mean,mfcc_10_Mean,mfcc_11_Mean,mfcc_12_Mean,chroma_0_Mean,chroma_1_Mean,chroma_2_Mean,chroma_3_Mean,chroma_4_Mean,chroma_5_Mean,chroma_6_Mean,chroma_7_Mean,chroma_8_Mean,chroma_9_Mean,chroma_10_Mean,chroma_11_Mean
..\file-birdsong\songs\songs\xc101371.flac,0.5703624885740403,6172.901925974519,7386.341380898652,-636.15424,-19.553493,8.999573,-6.8583093,2.670615,7.493067,-13.188851,14.840856,-18.969805,19.471676,-12.047686,5.1943483,-1.4657203,0.07061943,0.0655214,0.054488823,0.048877753,0.06369569,0.10328988,0.14426215,0.22893436,0.41837063,0.7323374,0.5103537,0.116290785
..\file-birdsong\songs\songs\xc101377.flac,0.24736526726843025,2879.0297183118782,3830.443451538668,-508.97983,-4.3252053,-39.670578,3.8638685,4.8625617,1.7750933,7.497664,-1.4836172,0.7141277,-1.2691226,-7.919418,-1.2936655,5.247331,0.42696205,0.32892817,0.22557727,0.16596241,0.18108033,0.19256622,0.25968227,0.21875812,0.20843455,0.20956443,0.26686332,0.4198377
..\file-birdsong\songs\songs\xc101862.flac,0.5232723460477942,6177.519174897554,8136.764131433823,-795.5379,-143.45088,58.78977,24.008863,-57.97436,41.470863,-1.7767226,-14.371585,10.208761,12.650118,-17.43765,14.2356205,3.6255782,0.5516039,0.5331551,0.4737875,0.37375495,0.32679683,0.2930801,0.2731747,0.27211267,0.3015406,0.45991474,0.548057,0.56726706
..\file-birdsong\songs\songs\xc101932.flac,0.3676214621750302,4639.337791363301,7378.780371448005,-721.7138,-75.53075,-73.765816,15.11451,5.051668,23.512499,23.851076,-14.790277,-14.201788,-2.0147204,-1.2815464,19.843008,4.7521234,0.43638384,0.5102116,0.54129815,0.56233096,0.46367282,0.42455935,0.4084831,0.38820392,0.35590097,0.36585817,0.41405347,0.4137547
..\file-birdsong\songs\songs\xc101933.flac,0.41150235695708715,5096.981158302996,7801.655902044051,-722.9058,-117.29969,-53.90146,46.46391,24.241049,-4.424503,-11.918977,-7.384314,8.268317,16.107534,-3.5450199,-2.9208033,-4.1717234,0.52121747,0.5126448,0.48180854,0.42906076,0.34494328,0.33842763,0.39657417,0.41215122,0.46057248,0.49263555,0.47703943,0.49202394
..\file-birdsong\songs\songs\xc101934.flac,0.47141757457092637,5705.69952535981,7639.424773185484,-730.06555,-166.39117,34.16608,56.0951,-63.231686,10.17462,21.475512,-8.350937,-19.6143,24.509098,-1.772857,-9.825319,4.8909554,0.3911481,0.35792708,0.31884462,0.25560123,0.23442574,0.28261694,0.3307479,0.44205704,0.6232453,0.70246947,0.605513,0.47946587
..\file-birdsong\songs\songs\xc101935.flac,0.37825941765445403,4811.1151762510935,7038.661351697198,-665.90735,-129.64024,-55.40827,67.01553,17.218565,-8.365173,-37.342327,20.18211,18.2791,1.374107,-19.1717,3.4067302,9.236975,0.5641842,0.48622033,0.43733603,0.4007475,0.37927258,0.37175512,0.30510303,0.26482755,0.275679,0.36074334,0.51532805,0.6237535
..\file-birdsong\songs\songs\xc101936.flac,0.5540287809551887,6387.554560522858,8572.733822228774,-686.1743,-130.5388,41.15448,31.499418,-41.04893,12.174726,14.524585,-8.012701,-10.963449,21.450953,-9.950209,-1.8509967,5.3177524,0.5119791,0.6039234,0.45626873,0.36296856,0.29312384,0.22816749,0.2776408,0.3693347,0.4759681,0.56805485,0.58054954,0.50309956
..\file-birdsong\songs\songs\xc101940.flac,0.12141277374402934,2448.2852389872273,5076.898949270727,-541.0741,69.49362,-11.843022,-17.736479,-29.092562,-34.337616,-35.955368,-28.937895,-20.628479,-16.749666,-11.54812,-1.0019462,1.5657507,0.46519202,0.28400138,0.23779613,0.3040124,0.4938026,0.4866768,0.30653447,0.33766982,0.2737844,0.29197037,0.3257126,0.41900074
..\file-birdsong\songs\songs\xc101941.flac,0.05903650502689549,1812.203097689269,3931.0009565509736,-624.0946,82.46083,41.505215,24.964622,2.3414257,-8.81997,-11.815828,-16.150316,-12.647563,-10.919985,-7.600429,2.2195885,9.568345,0.5067755,0.3033509,0.2547555,0.2327273,0.24588078,0.25469568,0.28028324,0.342558,0.35288098,0.42528,0.5208089,0.6742374
..\file-birdsong\songs\songs\xc102048.flac,0.46942440366563687,5834.3697994785425,8374.512414968513,-716.57794,-92.35048,21.51388,34.963634,-38.26684,9.857783,16.601473,-13.250903,-2.381883,12.677754,-4.1210985,-4.7814145,6.61689,0.4553442,0.42747536,0.38772064,0.34708607,0.2690119,0.22446863,0.2830791,0.4435585,0.49200585,0.45166215,0.43822142,0.49223682
..\file-birdsong\songs\songs\xc102060.flac,0.25420190994690167,3769.4736317614093,7580.574334872916,-539.8244,53.755756,3.0789216,-2.1167164,-16.106207,5.7141767,6.3792763,3.0702636,0.8316494,2.00129,-0.8167781,2.139891,-5.205102,0.5923832,0.58672357,0.61644703,0.601747,0.6008174,0.5531497,0.54517555,0.52422255,0.5255305,0.54602677,0.56954336,0.5942331
..\file-birdsong\songs\songs\xc102106.flac,0.28625927985634647,4051.690383568683,6689.106721698113,-580.8893,45.79606,24.880692,19.751461,-28.392672,26.535988,7.682783,7.795791,23.50203,-4.8308516,6.9797277,8.8175,-6.005084,0.4240498,0.5603603,0.47439864,0.39489675,0.35737664,0.34499574,0.38266262,0.3684981,0.35505238,0.3207753,0.29593533,0.3201093
..\file-birdsong\songs\songs\xc102107.flac,0.4459373051489892,5250.879767743613,7508.021336698444,-674.85364,-72.95785,-23.458334,41.18527,-14.351335,11.134607,-6.9582005,-11.175579,13.865144,1.5484724,-3.263844,0.4505399,-4.7601266,0.34552795,0.41541424,0.49937662,0.540108,0.33836398,0.24833073,0.26557186,0.3508327,0.3602424,0.3254723,0.3303605,0.34212655
..\file-birdsong\songs\songs\xc102278.flac,0.35140905028059377,4773.9767572147275,7729.7884267797335,-777.84393,-125.12329,-49.265003,65.57596,13.730555,-33.99776,-8.580916,19.221247,13.283807,-6.237346,-12.638255,13.688235,8.907067,0.6005019,0.70029646,0.71379477,0.6484866,0.5694504,0.44728997,0.3177059,0.25161758,0.25861132,0.27825683,0.3159517,0.45075458
..\file-birdsong\songs\songs\xc102788.flac,0.33333818461251863,4371.494320401957,7685.088792962929,-446.5266,4.722323,-24.545385,2.3156214,0.592782,19.513264,0.54837686,-1.2940862,4.7665954,4.5451045,-1.2103242,2.886268,9.224792,0.51968336,0.43815914,0.37107393,0.37724078,0.41885838,0.4260357,0.4325332,0.46531567,0.5240568,0.57035625,0.5658115,0.5537347
..\file-birdsong\songs\songs\xc102803.flac,0.37520824840065226,4708.592899380012,7480.427320818176,-649.5829,-49.61863,-61.270565,-2.903534,-5.4987054,32.32551,15.996241,-11.479977,0.18433824,-13.031884,-6.0623264,12.647543,-0.90248585,0.4407563,0.66754335,0.737609,0.6240432,0.5665176,0.4838444,0.42537034,0.39223954,0.37371588,0.33608726,0.32183075,0.34785855
..\file-birdsong\songs\songs\xc102868.flac,0.3292355007595486,4539.490944207941,8011.575889587402,-403.12772,-15.587655,-20.478611,23.281523,22.156746,5.6620145,-0.20476893,3.8689973,-4.505004,8.116171,8.968082,4.768316,-0.34841517,0.5261148,0.5450378,0.5698069,0.59267783,0.59474355,0.6477959,0.70025116,0.6886522,0.6159667,0.55095875,0.5343395,0.5380615
..\file-birdsong\songs\songs\xc102869.flac,0.1597854708224775,3180.4581212874664,6270.232098975604,-396.0,23.964108,-21.32256,31.340853,33.57426,17.436642,3.4378636,7.694475,-3.9716294,4.728026,6.9817595,6.682962,5.7340584,0.45746413,0.4769715,0.46060416,0.46089464,0.48236087,0.5270731,0.5610582,0.596683,0.54293877,0.46823227,0.43689108,0.43114236
..\file-birdsong\songs\songs\xc102932.flac,0.317963351798904,3855.0098594783494,5805.604501960105,-355.45206,10.10264,-27.684528,39.4585,-27.815159,2.2324066,-3.8512404,6.1309853,-5.3643546,1.7065287,-4.483443,-0.612416,0.65431106,0.40096718,0.37397873,0.36951286,0.37524438,0.33431834,0.30126894,0.33883438,0.39537922,0.40535918,0.38083506,0.32853588,0.3700266
..\file-birdsong\songs\songs\xc103145.flac,0.28089721525363465,3962.351270125875,6755.4435797497235,-428.35138,50.683796,5.5379305,0.32738683,-13.45217,-1.0329926,-21.421555,2.4425921,-24.608595,1.1315995,-14.919481,4.517368,-0.14917335,0.47873327,0.44140652,0.38323194,0.32456064,0.28496668,0.2686891,0.29065302,0.33469307,0.40060845,0.4870549,0.5509107,0.52403307
..\file-birdsong\songs\songs\xc106846.flac,0.45299367981307403,5186.09386347035,7604.706560347302,-602.3504,-40.56617,-27.708117,3.1881497,-39.962395,-20.147108,-15.270183,-1.6629668,-19.765789,-3.4619737,-9.145175,-0.8505097,1.2205621,0.4051457,0.32660174,0.25045538,0.27826703,0.2947402,0.2891791,0.34201804,0.38887724,0.45519495,0.54026276,0.39782053,0.34067526
..\file-birdsong\songs\songs\xc108002.flac,0.19436703286359724,2708.720113509328,4954.866634506777,-431.3765,74.31775,-47.35024,9.162241,-26.778467,5.3452673,-14.966103,-2.030296,-12.8365,4.180405,-15.872387,-4.417552,-5.5503902,0.5896472,0.54201555,0.49032557,0.43917894,0.41438204,0.41748965,0.46769732,0.55553204,0.6445933,0.63502246,0.6265516,0.6497477
..\file-birdsong\songs\songs\xc110167.flac,0.18091102704390116,2389.4799960598484,3207.4283443414824,-326.92072,46.2223,-52.655323,14.619247,25.782593,-21.948915,-34.800926,10.221246,12.629177,-16.718431,-28.29821,2.836392,3.5255353,0.41421837,0.76012903,0.31981418,0.1390655,0.12541363,0.114037015,0.08803592,0.071149096,0.07335903,0.098342836,0.18840022,0.26922172
..\file-birdsong\songs\songs\xc110303.flac,0.460800020417283,5370.480201664813,6830.240716877774,-434.08545,-76.42018,62.6815,35.11541,-61.77966,62.968746,-34.427902,2.2587383,-9.955427,-8.226356,-7.6506863,-4.704102,-3.2899525,0.058102816,0.14063124,0.35958463,0.3958339,0.6094043,0.6773014,0.43060264,0.29695573,0.20766583,0.17477839,0.076748826,0.051668823
..\file-birdsong\songs\songs\xc113082.flac,0.5297732080954323,5563.035908896102,7295.5756780179445,-445.60947,-109.00064,-59.622234,18.965427,-37.319866,27.089764,-24.849258,12.938615,-28.257845,10.892463,-23.878263,-0.25130892,-10.850474,0.3122314,0.27209058,0.25180182,0.22070019,0.21205443,0.21010576,0.26854342,0.4589316,0.70562124,0.70904535,0.53224117,0.39297035
..\file-birdsong\songs\songs\xc113089.flac,0.1682001869973983,2389.0185077640913,4070.4171085989237,-443.6595,50.503475,-52.61348,-11.216704,-5.3392644,-15.575801,-13.166668,-6.6783533,-4.865618,-10.672359,-11.750929,0.31027183,-1.2745825,0.73475,0.513277,0.49096537,0.45117602,0.41663164,0.39684495,0.41034597,0.4478013,0.4904928,0.5144477,0.53358656,0.62507164
..\file-birdsong\songs\songs\xc113905.flac,0.1786930436002994,2991.363952175574,6406.434810067365,-300.31186,74.242874,-13.14475,2.5799158,-8.1868105,2.5535438,-2.6586983,4.184784,-5.868649,-2.5260632,-6.806394,-0.24879374,-2.1774077,0.69004005,0.64583623,0.5912252,0.54501474,0.51909703,0.5425301,0.550695,0.5305823,0.536172,0.5657032,0.63021594,0.7166618
..\file-birdsong\songs\songs\xc116226.flac,0.04896304481907895,1224.57083786108,2290.877814041941,-266.61694,146.94798,0.74251425,21.890026,10.566869,17.786598,1.4504974,-5.037387,-8.669841,-0.09072923,-0.5030895,3.9028342,1.8123496,0.6020711,0.5413061,0.54492885,0.5827868,0.5801906,0.5869784,0.53566074,0.5142438,0.5284189,0.57833856,0.6008629,0.63311964
..\file-birdsong\songs\songs\xc118363.flac,0.20133515876205788,3006.8642237474505,5030.460899819132,-411.932,7.5739627,-108.71193,-23.044855,-4.807156,-0.26249632,-0.70135504,-2.0972157,-8.962712,-3.1092157,-8.193304,-5.0477543,0.024226591,0.56767446,0.5429861,0.462465,0.44592467,0.52090657,0.60039455,0.7174336,0.7668481,0.6798128,0.538303,0.5428703,0.59211046
..\file-birdsong\songs\songs\xc118441.flac,0.40069118467699577,4266.783304701704,6178.864422966452,-339.5965,24.06695,-2.0943944,37.876976,-20.245182,30.233484,-14.773557,8.011409,1.6789145,-3.2706704,10.826738,-3.9905453,4.3121257,0.25027344,0.2506681,0.3633432,0.52028775,0.7867142,0.60090065,0.33168453,0.27740306,0.22494559,0.21265449,0.20782037,0.24476242
..\file-birdsong\songs\songs\xc120664.flac,0.39018948637583273,5417.6699124903225,6718.740907975429,-254.62712,-17.960802,43.61518,46.601116,-23.83819,55.59293,-24.357828,20.083464,-7.989902,9.169698,5.6506166,-7.4301214,13.276121,0.05127326,0.06330732,0.07308417,0.086779214,0.09442012,0.32814243,0.9309199,0.6742008,0.25411618,0.099929504,0.051670335,0.046292927
..\file-birdsong\songs\songs\xc120666.flac,0.3955665310098824,4820.485637435768,6433.679346128032,-320.41428,-15.561858,7.293098,57.30596,-12.291506,36.049744,-24.136879,22.99991,11.207018,2.8976328,9.012495,2.4436667,17.219893,0.18983907,0.18694498,0.21942289,0.25926945,0.27502394,0.41776484,0.7956991,0.50414973,0.1609423,0.1177275,0.14933269,0.19683933
..\file-birdsong\songs\songs\xc121016.flac,0.3501252984585313,4195.0951589339475,6420.393889873441,-372.82733,-56.03714,-102.27619,-28.332575,-46.598904,-10.66046,-6.3212094,-4.93095,-5.5495586,12.350646,-0.91888857,5.7517767,4.0021234,0.40272042,0.3484634,0.32237205,0.35475656,0.4207662,0.3339827,0.3460856,0.386982,0.4746604,0.5171659,0.5010418,0.46112472
..\file-birdsong\songs\songs\xc121168.flac,0.1761509026319736,2437.6927312338557,4230.673757826559,-448.84985,87.28294,-26.504139,34.03074,-42.72171,-21.687452,-6.9389105,-21.065382,-31.979322,-13.1698265,-14.013626,-10.760444,-3.5947928,0.41313452,0.3725265,0.32330382,0.23758097,0.2305522,0.35916147,0.439414,0.42048198,0.4025808,0.34936962,0.40115353,0.43499142
..\file-birdsong\songs\songs\xc121326.flac,0.25736706305818985,3842.1343800744708,7693.042635076909,-387.41327,39.03622,-17.26956,-4.2641416,-11.5426445,2.5880973,-1.1279399,3.0944974,-0.04927215,4.614103,-1.2400227,4.339034,1.3406541,0.74223316,0.66871107,0.66906476,0.69026,0.65755665,0.6494544,0.6679306,0.6353761,0.62529075,0.63416034,0.679316,0.7425623
..\file-birdsong\songs\songs\xc121597.flac,0.20736614133839087,3205.6995512877456,5468.737001822627,-358.9314,45.16555,0.5311308,54.26465,-7.546594,14.22444,21.816729,-7.1013956,8.331346,14.442678,4.2914314,8.979603,5.386111,0.5679773,0.5792557,0.50111175,0.44804338,0.4350944,0.43746147,0.4270965,0.46781215,0.47996035,0.5133824,0.5318132,0.5576523
..\file-birdsong\songs\songs\xc121601.flac,0.32134337203499297,3706.588763564993,4911.1764527800615,-313.36002,0.26342878,-31.510134,85.19855,-11.676108,2.1510994,-1.4449675,-15.892793,3.6325238,3.5082238,-0.5191464,5.5793266,5.7411733,0.35443267,0.36151013,0.26347804,0.2326945,0.1967616,0.19301356,0.20284152,0.25061673,0.2764375,0.29251805,0.34546617,0.40276244
..\file-birdsong\songs\songs\xc121677.flac,0.11828020706917476,2473.519147266133,5569.468911180218,-303.56116,99.34087,-1.7775617,-2.2595088,9.711389,11.202765,-6.3997297,-9.154135,-8.457726,-1.9828142,-3.718848,-0.79900247,-0.60749125,0.6263993,0.58255607,0.5195532,0.56706804,0.5481191,0.61983687,0.6953872,0.63023883,0.5782707,0.51661247,0.5032906,0.5423762
..\file-birdsong\songs\songs\xc121691.flac,0.13787176899869538,2335.095674678294,4392.225626070205,-327.56744,92.189735,-44.193523,-10.168885,5.7692585,11.697087,-0.9794101,6.8670053,-0.008880535,1.5052849,-0.0438281,4.843244,2.4114387,0.6711857,0.61092865,0.5671372,0.537642,0.52016634,0.5333996,0.5623769,0.56902355,0.5590878,0.5800888,0.6558668,0.6914824
..\file-birdsong\songs\songs\xc121735.flac,0.22610982259114584,3411.283205159494,6179.692840576172,-340.03903,-25.762564,-110.10153,-41.191715,-34.025837,-14.72937,-9.773213,8.192159,16.594934,18.22443,15.606303,13.550088,-6.141701,0.391014,0.48208454,0.6368563,0.6105255,0.6145641,0.6112173,0.549116,0.54497975,0.47583213,0.47333664,0.43496534,0.40109184
..\file-birdsong\songs\songs\xc121963.flac,0.14659710848973087,2634.196628822552,5046.2116014518415,-373.74158,70.04633,47.680058,50.18662,-3.9277613,34.029404,1.123063,-0.11855964,0.9337778,-0.67905194,0.20091256,4.7372665,1.7634106,0.64358395,0.61379445,0.5745203,0.51859266,0.50068176,0.49111438,0.4747428,0.50444984,0.53043336,0.53503764,0.58291805,0.6164406
..\file-birdsong\songs\songs\xc122548.flac,0.20443601502523456,3047.206910642206,5455.470992178614,-408.15988,63.65607,-4.113124,36.240047,-10.620237,6.517561,9.257152,-1.5954508,0.48645085,4.517431,0.5753427,8.693265,4.4708705,0.51933783,0.44369078,0.4175395,0.44039747,0.47801936,0.49169075,0.45492044,0.4232789,0.4038411,0.43759248,0.45044762,0.5062411
..\file-birdsong\songs\songs\xc122555.flac,0.3158962121061426,3758.266468161735,5785.023177041892,-344.9469,38.2782,-13.028839,38.498188,-25.51085,8.931234,5.9105268,-5.7071395,4.735463,-2.1192012,0.49801704,11.558422,-8.732876,0.48203918,0.439682,0.532441,0.32699093,0.27932027,0.26276815,0.22005625,0.27057913,0.3880769,0.33288386,0.25096926,0.3230103
..\file-birdsong\songs\songs\xc123167.flac,0.1501151900885007,2659.8435743119658,4678.568167768105,-383.4274,48.149548,22.55387,53.6562,-13.555535,31.749395,7.4452925,8.058923,3.0115795,-6.941529,0.1405358,1.5343342,6.2534504,0.5231411,0.5450223,0.57253915,0.5758856,0.5807164,0.5751177,0.5221535,0.48321816,0.47953638,0.50369686,0.4978215,0.47067624
..\file-birdsong\songs\songs\xc123168.flac,0.08190232383862373,1827.1687621581837,3409.6330401232335,-392.52756,67.086716,23.738827,50.030167,12.908797,22.010765,4.007191,-3.3333294,0.93223417,-7.2332134,-0.93030447,5.907159,8.181423,0.6022387,0.6103302,0.635561,0.64686865,0.6040859,0.5610307,0.5269828,0.5284251,0.53614247,0.56524295,0.5782076,0.5863316
..\file-birdsong\songs\songs\xc123169.flac,0.25987868230322847,3588.3399504131985,4545.207982081242,-282.72208,19.200104,-16.526417,121.48786,-32.162056,17.344769,32.660557,-0.30742088,19.061262,1.7822367,8.43111,13.385733,3.7153702,0.34153396,0.29835892,0.3357877,0.37483478,0.29703707,0.24116099,0.20057829,0.16462228,0.16338299,0.21266903,0.27200323,0.33611482
..\file-birdsong\songs\songs\xc123170.flac,0.24409310738076848,3478.9207133230116,4495.388775678371,-287.4603,27.548712,-15.147953,113.092224,-33.98663,10.793244,33.408287,2.827754,20.423315,1.0744882,6.8126054,10.981359,3.7404222,0.31228173,0.30956438,0.37240088,0.36024526,0.2787241,0.26067564,0.20887089,0.18205683,0.2059432,0.2501771,0.30702728,0.34097856
..\file-birdsong\songs\songs\xc123808.flac,0.23364058919933808,2853.199477512777,4757.228183022386,-331.17313,84.68118,-8.104791,65.958435,-18.634401,26.032408,5.4046683,0.08074695,0.062841825,-6.022729,-1.4372197,0.8597648,2.8970568,0.40459332,0.43115854,0.4145151,0.38438755,0.38253433,0.39084524,0.40967637,0.5041918,0.5001475,0.44087014,0.3958837,0.38070595
..\file-birdsong\songs\songs\xc123810.flac,0.27562259253359594,3272.750242645581,5191.718136820117,-258.30933,45.736095,-36.56255,61.613323,-1.9445251,23.090805,-0.48891425,1.7549988,-5.582682,-3.9619222,-7.742737,0.57054144,0.875205,0.49777237,0.4925451,0.46006116,0.4425415,0.42004117,0.37973493,0.3846624,0.4213321,0.4401741,0.43051487,0.42615196,0.4456299
..\file-birdsong\songs\songs\xc124013.flac,0.10678601620802239,1518.830146911339,2299.3845287721547,-261.06473,165.58344,-16.052898,0.5427349,-19.593222,8.334811,-4.748855,-15.086299,-7.2844725,-2.2225134,-11.248944,-1.5171026,-6.763688,0.5698071,0.61728454,0.6047424,0.6072083,0.61849,0.6141154,0.55892015,0.52441007,0.5218953,0.538697,0.5379529,0.53049046
..\file-birdsong\songs\songs\xc124052.flac,0.22139493115859232,3013.489957854391,4286.76079396138,-276.4724,53.815643,-38.987755,101.02762,-18.83719,12.551055,16.350454,-13.039687,8.451298,6.72562,1.2227391,6.717367,3.7506344,0.52648205,0.4941634,0.37544063,0.29211047,0.3102688,0.30392843,0.30140498,0.3603604,0.43421632,0.4614057,0.51231056,0.5039116
..\file-birdsong\songs\songs\xc124053.flac,0.23223683878712073,3016.8765624744397,4351.430799608618,-266.1019,62.005997,-46.834484,92.312744,-28.41224,10.140864,14.790547,-13.583495,10.381437,10.78124,0.9367058,6.4897466,0.96511966,0.50152844,0.39974004,0.3370149,0.3152963,0.31260955,0.31818596,0.34604758,0.3938959,0.43290487,0.50753915,0.5260967,0.5341636
..\file-birdsong\songs\songs\xc125137.flac,0.09388771524234694,2316.986898223461,4882.10888671875,-310.07495,55.907154,29.591795,46.53202,2.039752,28.943476,14.337795,13.395533,17.718538,12.825521,9.488739,11.268277,6.850282,0.7042681,0.67312473,0.6627654,0.68779,0.7279306,0.7121954,0.62530106,0.59806186,0.6125751,0.6436408,0.6349741,0.6628984
..\file-birdsong\songs\songs\xc125486.flac,0.2491674330628034,3520.7846931429804,5979.39681266118,-428.07935,-14.587002,-73.36862,-8.94455,7.1415915,36.508766,18.606884,11.4186735,-9.026533,-4.993388,2.6066008,11.616151,2.7675247,0.2967594,0.38169998,0.49289456,0.51906747,0.5069938,0.4242229,0.32515916,0.2728082,0.27567858,0.3593248,0.32924625,0.27645352
..\file-birdsong\songs\songs\xc125777.flac,0.2433627244008274,3751.6673709645197,5992.793746063777,-357.33612,32.150936,21.77671,47.725304,-20.721418,27.075321,2.602839,5.012757,1.2412645,4.977751,6.86878,9.62644,7.603484,0.45067728,0.43396056,0.46480298,0.50142014,0.48710123,0.42505193,0.38446513,0.3846053,0.4205019,0.4956482,0.4939332,0.46754998
..\file-birdsong\songs\songs\xc125782.flac,0.20222200484704494,3283.0164640555577,5773.799206122971,-374.9529,37.219307,-5.627126,57.574883,4.485103,10.2182665,9.929248,2.239712,4.5722876,5.116469,1.4239104,11.0224,6.1406317,0.540451,0.4895174,0.43978935,0.41976723,0.41040942,0.39457402,0.3926839,0.4095492,0.4458218,0.4865028,0.5277408,0.5371264
..\file-birdsong\songs\songs\xc126481.flac,0.16132260543298074,2460.8150103620274,4274.3510191772575,-281.01578,57.97311,-97.303085,-13.084891,-40.572193,-1.84326,-17.471296,-6.482609,-23.060156,-19.94388,-14.7872095,-5.193836,-0.45152748,0.5584731,0.50217724,0.41289017,0.35242856,0.30261722,0.32991502,0.29893592,0.28093672,0.26171032,0.25478587,0.32186118,0.43225724
..\file-birdsong\songs\songs\xc127136.flac,0.2889523661587353,3669.500453517413,6277.9253585397655,-305.50278,-3.2720258,-83.808525,-25.381493,-30.98462,4.080921,-14.763487,-8.058,-9.866622,-3.3665957,-5.3008842,-1.7294631,-9.024665,0.4342585,0.45544922,0.49309468,0.4963964,0.6479948,0.58629453,0.5977513,0.5568421,0.55489403,0.5160986,0.47763473,0.45978138
..\file-birdsong\songs\songs\xc127996.flac,0.1886148607713257,3021.178140466305,5283.669958297752,-360.53577,45.1961,-17.737698,37.167583,21.63279,8.733687,-5.696661,5.253972,8.847879,3.0993035,2.6422937,7.567377,9.070031,0.48208117,0.4115386,0.39125398,0.3674613,0.34946376,0.35646126,0.34401065,0.34989974,0.34437284,0.34764916,0.37907165,0.46684527
..\file-birdsong\songs\songs\xc128851.flac,0.09759393601190476,2014.892612634852,4005.17578125,-343.53293,94.84671,7.3694777,37.77794,-15.458032,2.0515409,-6.647985,-8.535178,0.7511396,5.0250688,6.3952417,7.878218,11.99446,0.61143494,0.48670956,0.43900728,0.42175576,0.42114165,0.4133728,0.37876725,0.37692133,0.3721237,0.39168835,0.46456778,0.56979346
..\file-birdsong\songs\songs\xc128853.flac,0.05180590374305004,1786.6536355652133,3502.2583298686955,-378.48135,93.689064,20.886772,14.294182,2.990186,20.380934,1.5330296,15.510141,5.0222983,11.854388,5.2927837,11.655782,5.5399327,0.643266,0.66238016,0.70171916,0.76427346,0.81226635,0.82369536,0.77761066,0.7453318,0.75838286,0.74349636,0.6961222,0.6257194
..\file-birdsong\songs\songs\xc129576.flac,0.18313930787705465,2515.2192226770626,4344.479178958657,-151.89952,71.26192,-94.31232,25.38468,-7.194621,32.87934,-12.28715,8.786573,15.790508,19.196846,1.4973836,12.437043,4.221383,0.5200368,0.3787851,0.26919523,0.22781576,0.24581693,0.30589217,0.37286195,0.46341574,0.5992656,0.6903294,0.70604736,0.6701182
..\file-birdsong\songs\songs\xc129577.flac,0.19623051753746878,2671.613266041238,4491.600261500833,-112.784294,56.06682,-100.486336,17.747366,-12.062103,29.988714,-12.963356,7.8550377,16.157372,18.818295,-0.69093436,11.6822815,3.310253,0.5521683,0.3575912,0.2526999,0.20885366,0.22406788,0.27665415,0.3375457,0.43460166,0.5517445,0.66305876,0.7157535,0.69997084
..\file-birdsong\songs\songs\xc130283.flac,0.11124605439753446,1773.179636040994,3004.7452762801977,-452.84644,129.78012,-48.076332,-3.2175393,-6.878139,10.011975,-0.59298456,4.0753355,-9.768278,-1.2789203,-8.357595,-4.6297503,-3.575999,0.4839865,0.4605842,0.4327118,0.3910245,0.43382996,0.4556143,0.4459963,0.48454076,0.5253215,0.4912184,0.46966147,0.47196612
..\file-birdsong\songs\songs\xc130409.flac,0.4111513783269962,4623.667958474873,7446.352004223869,-466.48395,13.419395,-5.0067353,13.633233,-27.655281,14.066278,-18.766352,5.9771748,-15.083358,3.1824558,-15.053526,1.5580502,-12.617731,0.64236784,0.5984703,0.5969529,0.5597757,0.56004614,0.57385135,0.5786234,0.59002596,0.6013948,0.61280394,0.6184836,0.6140632
..\file-birdsong\songs\songs\xc130426.flac,0.2314205804540521,3191.2833678059983,5803.30731051013,-519.1787,41.047688,-40.253307,0.15026513,-0.6903219,15.270197,-17.12323,-7.498541,-16.894333,2.615002,-10.771469,-1.753463,-13.866952,0.40292066,0.41441378,0.37078044,0.38173825,0.40175623,0.3738454,0.35949743,0.35079098,0.3819006,0.5110343,0.73756546,0.50693226
..\file-birdsong\songs\songs\xc130639.flac,0.1251377375386067,2351.844258539393,4539.264246954358,-333.73126,98.61164,-17.914024,-12.426079,-1.4115332,1.8674817,-20.841213,-11.66088,-14.387499,-4.6880574,-8.260324,-6.1468806,-2.6599038,0.43639556,0.4239916,0.50328517,0.5340929,0.40226805,0.39808482,0.45076343,0.56567657,0.6617199,0.56611437,0.48706344,0.4501551
..\file-birdsong\songs\songs\xc130993.flac,0.11014058664075287,2277.9512596737422,4696.529047539893,-333.6045,87.720505,7.830427,39.561962,-40.45262,17.401787,-4.6957817,-9.648811,-17.94006,-4.968364,1.2001225,11.669424,16.384497,0.43419915,0.3988384,0.34126413,0.3607818,0.35052836,0.3030447,0.25139952,0.26735753,0.3228236,0.31484318,0.31312415,0.36638218
..\file-birdsong\songs\songs\xc131316.flac,0.12925474793760927,2244.9943031226035,4151.498978621476,-365.4258,95.18121,34.213116,33.173862,-0.021712136,19.392462,2.4979439,14.850115,9.527202,0.97954893,0.004049915,7.8331556,0.114583634,0.55959684,0.5053079,0.5280042,0.61033446,0.56904864,0.4764422,0.48882315,0.52460045,0.49668816,0.4396807,0.4295697,0.47344518
..\file-birdsong\songs\songs\xc132149.flac,0.4501474578879414,5070.703867021759,7387.3705990177605,-341.6595,0.57876116,-25.629786,-27.227682,-47.821712,-13.493683,-20.030554,-12.801773,-23.359697,-4.8652697,-11.061096,8.182768,-4.2705884,0.49301487,0.44881013,0.34360003,0.2875992,0.27080238,0.2631507,0.27120292,0.29646996,0.30870318,0.33437034,0.37819403,0.42563882
..\file-birdsong\songs\songs\xc132392.flac,0.31524201569733795,3730.7368131689177,5499.384684244792,-371.97574,5.28139,-21.427544,69.5032,11.169196,16.175076,-0.77305746,13.320547,6.3878155,8.568766,1.1343046,8.486861,6.090364,0.32712948,0.3088383,0.28511962,0.2445577,0.24225444,0.23103769,0.27768558,0.29692388,0.27517933,0.25684926,0.29335955,0.38515848
..\file-birdsong\songs\songs\xc132580.flac,0.15282825012099613,1749.3899529197963,2906.2737437714495,-499.5507,95.50453,-38.05758,10.282218,17.144203,-24.83524,-0.35757586,4.935916,-16.73277,-2.798527,-0.6318136,-11.572669,-1.8683988,0.52617705,0.55115676,0.57944024,0.5974176,0.58731776,0.60030013,0.61678076,0.6353278,0.6341229,0.56523985,0.53322315,0.52333146
..\file-birdsong\songs\songs\xc132608.flac,0.24287303394039736,3433.9625721260186,6202.4375699644415,-327.9258,47.873028,-16.705767,25.799982,-10.665144,14.778369,3.73804,-2.1021104,-4.470736,2.9244542,-2.1316066,6.0130754,3.1943939,0.6546272,0.63574094,0.6080038,0.6179177,0.6070222,0.618305,0.5883117,0.56923985,0.5644203,0.5725746,0.5992039,0.63972825
..\file-birdsong\songs\songs\xc132611.flac,0.2153391724748629,3533.449483438759,6470.392928045018,-343.87213,35.57538,-13.647197,24.93506,-11.8422165,12.0775795,8.37138,7.0175605,0.78714556,5.9588537,0.4731742,4.124913,3.610173,0.6115567,0.54295456,0.5012538,0.49586517,0.51525605,0.5876573,0.617333,0.53589433,0.5379757,0.5700693,0.6129896,0.6149917
..\file-birdsong\songs\songs\xc133054.flac,0.29349913004460143,3922.1778529192447,6781.452317091748,-373.55365,-1.8298893,-56.39784,-5.7821703,-23.355661,-6.458324,-13.394098,-14.646615,-16.486103,-9.581827,-11.869214,-8.824444,-9.853304,0.48901278,0.48750642,0.4891745,0.4519931,0.3826693,0.37257472,0.47059524,0.49228576,0.43857068,0.42281392,0.4215859,0.51022196
..\file-birdsong\songs\songs\xc133444.flac,0.2600172017774126,3303.6108956524363,5020.484603876944,-422.44073,11.470661,-87.87848,0.14342913,-53.524227,-25.481102,-19.118816,-26.683134,-16.555414,-14.138897,-16.325438,-4.5968466,-6.0349565,0.6081932,0.58675766,0.51936054,0.4707071,0.39085618,0.37184012,0.38510773,0.39806628,0.4316769,0.47740403,0.53646755,0.6090961
..\file-birdsong\songs\songs\xc133471.flac,0.3456432658911617,4176.133549047005,5786.05917147903,-342.00986,-121.01467,-113.41331,26.512238,-4.253523,29.070503,17.99016,-10.335824,-9.568181,0.65306914,0.2085507,-5.4083443,-3.5337093,0.30891022,0.32406932,0.34967896,0.33341542,0.28073052,0.2924322,0.33621025,0.36886972,0.47235966,0.5113023,0.35375944,0.28757042
..\file-birdsong\songs\songs\xc133862.flac,0.2326160978494421,2715.6013182973397,3622.4873836135403,-322.968,97.47747,-38.03693,-24.860357,-21.114664,-5.392067,9.915622,1.1696723,-4.3139157,11.023963,-8.091978,1.1933311,-1.2398851,0.4601448,0.366012,0.31538996,0.29458734,0.31440544,0.34204966,0.36619964,0.44717538,0.49081025,0.5331696,0.5807031,0.53205246
..\file-birdsong\songs\songs\xc133872.flac,0.3944528493052492,4444.072352850753,6045.7293590786285,-402.7503,12.313807,-11.160348,25.089815,-47.735718,17.641645,-6.145981,-0.14003344,3.9984226,-1.446665,1.4700392,0.5366819,2.5061455,0.33368284,0.36586627,0.40074024,0.4093104,0.32485786,0.27806383,0.30907375,0.35060468,0.36650345,0.33492053,0.3372726,0.36150745
..\file-birdsong\songs\songs\xc133880.flac,0.28304267871248023,3328.7007552589307,5273.049420542062,-167.99739,69.84227,-46.99091,10.396752,-55.546135,20.459139,-1.8589101,2.7236638,-3.5445697,3.7568684,-1.7167963,-3.6444638,2.6225836,0.4926579,0.41870102,0.38546917,0.36878082,0.3694278,0.42055276,0.4161924,0.41722065,0.44636744,0.47386187,0.4965707,0.5057877
..\file-birdsong\songs\songs\xc133886.flac,0.20905672981710158,2965.7678052103834,5128.5547603098785,-258.46808,72.14677,-25.582575,9.8472185,-17.165926,7.2787666,0.14244986,-1.1824589,-1.1739229,5.344883,1.3172191,2.27017,-0.5507446,0.5004222,0.52038294,0.5637992,0.549356,0.5359153,0.54263437,0.58497864,0.5917502,0.5755787,0.53801006,0.5139581,0.49545315
..\file-birdsong\songs\songs\xc134042.flac,0.6105242214650304,7251.798157971239,8999.597390686089,-573.7859,-80.63902,57.4522,-27.008093,-1.6353915,20.919947,-27.323832,22.19324,-10.645268,-0.8792573,7.315471,-6.8012743,0.95771974,0.16984105,0.11420619,0.1337198,0.53901035,0.65805537,0.32975766,0.22170298,0.18447557,0.18918833,0.2941407,0.3944597,0.2807976
..\file-birdsong\songs\songs\xc134291.flac,0.3504174273947011,4179.740632703452,5646.2048074473505,-361.66666,-117.012794,-118.18964,22.196913,-22.133852,32.478447,23.494814,-2.1960125,-4.8715096,-6.289839,-3.6780064,-2.9767835,0.38255575,0.38083577,0.36501947,0.3755317,0.3512495,0.33809853,0.40657142,0.38104305,0.39729849,0.41159153,0.42028826,0.4499091,0.46407413
..\file-birdsong\songs\songs\xc134671.flac,0.1133716724537037,1831.823885153079,3321.393453663793,-387.48486,99.64623,0.46699956,-2.0273373,-8.028777,-14.595321,-7.564276,-4.7584567,-2.175632,1.795873,4.2099495,4.928404,2.445697,0.32544833,0.3942238,0.5337968,0.4019045,0.40692887,0.4494595,0.4839286,0.36505446,0.34940922,0.29579133,0.28730214,0.30224064
..\file-birdsong\songs\songs\xc135270.flac,0.25089679126560877,3498.633217224294,6712.611959181517,-411.71774,43.034943,-32.051277,-12.468689,-20.920078,-3.975161,-9.827066,7.603348,-15.345358,-1.5737582,-6.192744,4.580841,-9.10077,0.53658193,0.5065415,0.55998117,0.5434309,0.5086197,0.46810463,0.4175957,0.40228596,0.43269962,0.48570222,0.5519604,0.58039486
..\file-birdsong\songs\songs\xc135521.flac,0.02655408473196393,902.7064400765679,1504.3164747463677,-405.83545,64.112114,27.61953,25.23922,8.377003,11.1543255,23.276587,19.60346,12.672429,16.180891,14.612829,9.809483,10.634513,0.6524597,0.6908536,0.72065115,0.74649876,0.7784687,0.77041435,0.73589104,0.7076905,0.67993873,0.64973074,0.6188952,0.5994752
..\file-birdsong\songs\songs\xc138979.flac,0.23272986220746658,3397.8066922634684,5420.423959445811,-360.55478,65.985176,-11.210494,30.53904,-33.08929,24.252188,4.4439116,0.44510356,-7.6230273,3.3037152,-5.9465613,-2.3646836,4.2130704,0.35995585,0.36208245,0.35721904,0.35308427,0.35889295,0.41286674,0.36959866,0.43183106,0.4921437,0.4723172,0.4558894,0.41732988
..\file-birdsong\songs\songs\xc139372.flac,0.37352091687102335,4076.752691619098,6103.401464015277,-439.30646,28.279524,-16.55133,32.659496,-14.175499,10.472644,-17.542782,7.434068,-16.69571,-1.3615795,-10.811378,0.046736035,2.2657533,0.36352205,0.3448371,0.36164838,0.37565428,0.3665963,0.33538112,0.37729686,0.38223046,0.4240925,0.437782,0.49941218,0.45726568
..\file-birdsong\songs\songs\xc139552.flac,0.48133075971407624,5611.702003020428,7581.281967386822,-544.5023,-110.79619,-5.336649,49.639034,-15.664907,-7.160575,-9.078325,21.394794,-3.8182268,-9.203944,3.081268,2.3767836,6.9997997,0.29605016,0.28433305,0.25029594,0.2890454,0.36672816,0.37158573,0.4730762,0.52405417,0.4287959,0.32373026,0.23235525,0.23375009
..\file-birdsong\songs\songs\xc140557.flac,0.22288706001365055,3814.1650797664297,5566.90409120271,-351.72266,3.1607852,2.7732425,78.42803,-19.98691,59.397705,-21.620462,18.702599,4.132078,4.210183,5.576782,3.1940908,10.140227,0.2996756,0.35281724,0.5687775,0.7758759,0.6062707,0.50957406,0.4141931,0.40523246,0.40183714,0.34244138,0.30508822,0.28913313
..\file-birdsong\songs\songs\xc141026.flac,0.1889467764172201,2652.4282644999325,4103.418466759814,-300.1649,56.146503,-55.85466,45.85623,23.491657,31.01824,-13.532158,-2.176678,11.852439,-3.182562,-16.58142,-10.344102,-6.4345536,0.45723206,0.48231536,0.53586787,0.35678667,0.22771423,0.20511736,0.22944768,0.28199828,0.35595047,0.40003523,0.48220643,0.49992725
..\file-birdsong\songs\songs\xc142431.flac,0.4262373576792636,5143.999174547249,7329.3520905250725,-453.59225,-62.329834,-42.6313,4.522244,-9.025975,21.042955,-7.661896,6.9246583,0.9067045,-1.235727,0.43717813,-3.9305718,-0.37917343,0.34037575,0.36230117,0.4677746,0.39446765,0.32651463,0.37047148,0.38746157,0.39024058,0.4226866,0.37681067,0.34947824,0.35146236
..\file-birdsong\songs\songs\xc142697.flac,0.26264151674937963,3314.1915552934133,5246.936295653691,-351.35995,46.69606,-26.19187,59.29126,-30.789955,18.826555,-17.692661,-15.965286,-11.684354,-14.305345,-9.186047,-11.992342,-4.1583214,0.487209,0.49970502,0.49773872,0.46989456,0.4589488,0.48037446,0.46711612,0.46862212,0.43047222,0.3996464,0.38147762,0.42964202
..\file-birdsong\songs\songs\xc142908.flac,0.25288916836265757,3461.1347567636144,5877.908504710478,-404.2962,-13.150971,-94.98269,-18.545439,-13.305127,-7.128812,-20.094513,-13.007728,-8.572608,4.4581647,-15.430026,-6.4598613,-0.63098717,0.5209207,0.39092305,0.34947324,0.2945093,0.2834578,0.3255089,0.38444144,0.45872885,0.51357794,0.58669126,0.5803724,0.5814777
..\file-birdsong\songs\songs\xc143002.flac,0.16122837651997685,2313.1480321809013,3889.667041383179,-335.06036,71.71003,-78.55322,-10.119458,9.007434,30.260979,-3.3962276,-1.4848928,-20.068825,-6.3787184,-3.3585215,-1.654699,6.1399827,0.33807197,0.403673,0.46372542,0.5607494,0.61348474,0.57051027,0.50807804,0.5043253,0.41925308,0.32894355,0.27726346,0.26280975
..\file-birdsong\songs\songs\xc143005.flac,0.191211344966968,2517.2870888272387,4397.6850443324065,-299.45175,74.96976,-77.19176,1.4412531,-0.5144705,38.69862,-8.15405,1.2425444,-15.7583065,-10.669843,-3.5584912,-2.560657,2.332328,0.3626678,0.38222456,0.43728977,0.5548903,0.60780764,0.51499027,0.39769965,0.38311344,0.38656595,0.34288427,0.30651605,0.31895265
..\file-birdsong\songs\songs\xc143170.flac,0.21939524052202422,3067.133335733855,5326.7019080730915,-327.99832,31.960686,-85.407455,-15.238598,-41.414677,-8.568523,-11.005455,-10.642187,-23.483728,-11.782135,-12.840735,-7.941837,-10.703163,0.6375545,0.63652307,0.5278718,0.49731502,0.4933464,0.48152247,0.46400154,0.4965804,0.47245768,0.41476336,0.3920884,0.47981447
..\file-birdsong\songs\songs\xc143465.flac,0.3938344172270694,4945.9902572606925,7030.910956128142,-554.2724,-65.9362,-17.991838,53.782665,-25.83388,-10.110806,13.230635,1.554906,-6.3923674,1.62449,-0.84923434,3.957051,-3.2072089,0.41472173,0.42160842,0.32205847,0.2855715,0.26407307,0.28935233,0.30532202,0.31713307,0.35260487,0.39205593,0.35816407,0.35541135
..\file-birdsong\songs\songs\xc143894.flac,0.052053855613425924,1457.6259030956774,2927.7021484375,-301.57773,131.50012,2.236243,10.266763,-2.6842086,23.479399,3.8342202,4.801592,17.428234,11.702755,-2.9213994,7.121081,7.4568133,0.6502132,0.5664666,0.605375,0.62759995,0.6144133,0.6340886,0.5963221,0.5741771,0.59170836,0.6847788,0.7024456,0.6958196
..\file-birdsong\songs\songs\xc144382.flac,0.14912805637391677,2368.209142983706,4366.812582576976,-368.79346,94.87291,-23.360722,12.699234,8.613267,8.392872,3.603248,9.147598,-1.2718842,3.9867127,2.3600516,-1.2501508,-1.451447,0.42778286,0.4184968,0.43545508,0.43784782,0.40897322,0.45714572,0.4818711,0.4124814,0.35474032,0.3984615,0.4724904,0.46037722
..\file-birdsong\songs\songs\xc144991.flac,0.070263671875,941.5544890664117,1556.5135444972825,-369.65237,182.07956,-27.312342,-9.517884,21.926495,-17.34366,-27.805323,-8.695245,-5.097451,-11.650563,1.4806545,11.881965,4.81656,0.67763996,0.54849124,0.47101218,0.32496575,0.2615964,0.26528895,0.30092826,0.33782512,0.3551314,0.42531148,0.5167577,0.6118151
..\file-birdsong\songs\songs\xc145533.flac,0.24646183648659692,3128.9872323469817,4919.590748802202,-381.6702,57.278194,-21.110285,30.875246,-28.622644,3.61976,-6.2993183,-25.415674,-10.243809,-16.90495,-3.7451637,-7.3672233,-0.10216297,0.4801954,0.38641718,0.35289243,0.37540126,0.31299713,0.30816716,0.3089227,0.3130119,0.345227,0.4030106,0.46882755,0.5033333
..\file-birdsong\songs\songs\xc145534.flac,0.23727439186789773,3191.451693455525,5208.0156139026985,-338.4956,60.866875,-28.217344,28.486473,-29.576246,6.469748,-10.852725,-10.179785,-15.15789,-5.8900347,-6.2992163,-4.4983764,0.008834006,0.46342582,0.44484326,0.40271318,0.39833865,0.38427067,0.3850361,0.4094208,0.4411457,0.446083,0.4599012,0.46573603,0.46623158
..\file-birdsong\songs\songs\xc145537.flac,0.15982446915064102,2550.020790576364,4355.038569523738,-392.85843,85.86861,-32.727802,17.38857,-17.906324,8.84742,-15.654743,-31.23871,-21.924532,-13.535498,-12.631208,-7.765725,3.2387733,0.37724978,0.28063974,0.1995538,0.19542183,0.22823879,0.26035956,0.32470623,0.43210846,0.5236635,0.54269874,0.5886428,0.51492894
..\file-birdsong\songs\songs\xc145738.flac,0.05745110920394488,1850.6369556742786,4733.707691507998,-205.7995,101.02499,38.275707,9.889189,13.796103,20.219368,6.7983155,6.3351665,-4.2882576,4.4523115,4.3967557,9.29663,4.247648,0.6308525,0.6444709,0.6771955,0.6867727,0.627086,0.6068891,0.6284859,0.6479369,0.5749475,0.5624272,0.56256795,0.5877825
..\file-birdsong\songs\songs\xc146062.flac,0.13242659029542567,3179.3306178468383,7144.720901043321,-414.99118,57.46206,13.888912,22.737051,15.912777,9.903587,2.1259146,9.961331,1.0520916,-1.6678087,-2.6698735,3.1814222,-0.3596216,0.5302392,0.5182082,0.52203137,0.5435328,0.53647894,0.5942734,0.64494944,0.6240112,0.58569634,0.54570466,0.5810405,0.572388
..\file-birdsong\songs\songs\xc146260.flac,0.31181210720284985,3803.7220243336606,5565.285284768883,-462.54413,-23.317038,-33.98963,63.40499,5.3045354,5.5502725,-6.5876927,-3.4842174,-4.7802696,-0.49808425,2.1401923,-2.4790256,0.058665387,0.33800936,0.3231971,0.32745183,0.35027102,0.3878574,0.37629205,0.35649443,0.3467085,0.3452944,0.362979,0.33858842,0.34097627
..\file-birdsong\songs\songs\xc146707.flac,0.3995266613838318,4776.644838344834,7461.380889852893,-309.86404,-108.611145,-118.25524,-59.496456,-23.734638,26.174206,17.24747,42.25119,8.253588,1.3041157,-18.548677,-12.354402,-13.967116,0.4631998,0.41491702,0.33743906,0.30741158,0.3599747,0.32758212,0.2737431,0.29754934,0.37785393,0.45363846,0.454668,0.45690003
..\file-birdsong\songs\songs\xc146753.flac,0.3234972347508591,3635.4082009774293,5614.875211420747,-464.80853,57.332455,-5.087245,52.457882,-19.903902,3.5694022,-11.424033,-2.2390864,-6.5691247,0.36290067,-5.878814,-3.6371596,-1.1400918,0.41729113,0.34309223,0.3536454,0.31858984,0.32145104,0.34878582,0.40731302,0.36769924,0.3921877,0.39278057,0.41757104,0.45507494
..\file-birdsong\songs\songs\xc146755.flac,0.30709260716426856,3899.209971148623,6540.645901247752,-551.4748,24.08688,-6.1655025,33.24085,-18.382305,1.9315339,7.1356726,-4.9364743,-7.213562,1.9970156,-2.228968,-2.301044,-0.59926516,0.4383461,0.43288964,0.4028462,0.38229278,0.39824682,0.51273537,0.5336636,0.49234876,0.48957118,0.4508474,0.45081726,0.4869956
..\file-birdsong\songs\songs\xc146756.flac,0.2708804963678361,3192.756717000011,4890.366893537426,-454.06934,69.23809,-30.734852,5.8793206,-21.898129,-3.8521464,-1.1347795,6.442872,-17.880781,2.042413,6.2213664,3.3151188,-5.3500915,0.27859738,0.28751254,0.44404727,0.51936436,0.49209937,0.4518619,0.39685473,0.34928155,0.31829235,0.32221052,0.31032774,0.26618412
..\file-birdsong\songs\songs\xc146757.flac,0.04884132179054054,954.5016943070821,1485.0011877111488,-342.13742,172.52768,31.28707,0.4380036,4.0255623,17.300184,10.240028,12.221058,0.7315593,6.9188924,7.216497,2.6707184,0.36281487,0.6033772,0.6017744,0.60067385,0.5824464,0.5735224,0.57363737,0.5806756,0.5938595,0.5856952,0.6485241,0.6246776,0.6090453
..\file-birdsong\songs\songs\xc148426.flac,0.2893773351114375,3386.982389274462,5119.024240616362,-330.70966,41.912777,-43.17623,61.11673,-30.895264,17.706156,-17.171743,-21.374655,-2.4637203,-5.3602276,-3.6398954,-9.618687,3.2082736,0.402609,0.390448,0.36474183,0.3410165,0.29151037,0.24022952,0.23731264,0.29118556,0.37066638,0.4018752,0.4128956,0.47136316
..\file-birdsong\songs\songs\xc148465.flac,0.4048562757115855,4313.0555104527975,5523.735859713767,-264.03433,-10.575839,-47.48741,67.12481,-59.18499,29.674944,-10.535373,-12.215982,-2.9865935,-16.150972,-2.143236,-6.6673484,-2.8190138,0.5614954,0.5496465,0.4947125,0.50260556,0.49666303,0.34949815,0.2191809,0.17782483,0.20281123,0.24283643,0.34588045,0.49209487
..\file-birdsong\songs\songs\xc148528.flac,0.14309842469262296,2872.1911454804213,5632.736856429303,-382.90314,51.362343,-35.144608,23.339323,3.1567366,29.690355,8.056978,14.403576,10.235997,13.034331,5.5768824,5.9286747,4.3790283,0.64574784,0.6049283,0.5536131,0.5512821,0.54138976,0.5484427,0.57670915,0.6849793,0.71493024,0.7275812,0.6673749,0.6195786
..\file-birdsong\songs\songs\xc148889.flac,0.12093650688559322,2689.2133887778373,5952.757547669492,-390.57074,75.136314,-8.213412,18.775925,10.738674,24.633955,-2.816367,5.5754533,-1.912477,2.8431592,0.41011465,4.7926173,4.7641907,0.74148005,0.68606156,0.6874094,0.7197727,0.66392195,0.62730944,0.64546824,0.7135297,0.7068099,0.70476544,0.6973227,0.7507767
..\file-birdsong\songs\songs\xc149146.flac,0.2609805726168448,3228.241458235803,5076.927807456569,-424.99356,52.654186,-22.843088,27.349922,-40.76026,-8.045898,-0.061422314,-18.841759,-0.39342064,-11.191654,-13.210398,-5.903345,-13.850447,0.47845903,0.45551246,0.52468216,0.46624237,0.3742212,0.41327503,0.45789737,0.49642327,0.49032244,0.43934852,0.40489775,0.4145028
..\file-birdsong\songs\songs\xc149806.flac,0.12112798171971396,1976.3248297878608,3545.0499974805452,-256.32098,104.81892,-53.080627,6.0895634,-24.508482,-23.378107,-21.356726,-11.934503,-12.922198,-13.032348,-15.828285,-13.767937,-18.62811,0.48532057,0.5150208,0.59658813,0.6064077,0.5089596,0.44851324,0.46261668,0.50609505,0.5468598,0.54533696,0.50283283,0.47594923
..\file-birdsong\songs\songs\xc150291.flac,0.3790927927606545,5090.711216027699,7899.621080372432,-485.77094,-35.62599,-16.189154,32.683395,-5.894114,-18.4373,10.277757,11.540348,-13.655867,-1.8719332,10.058797,-1.2686695,-7.4358478,0.2170618,0.21050197,0.36131823,0.5041487,0.5206754,0.5545941,0.57099736,0.5855777,0.54430914,0.45444006,0.33926868,0.25783265
..\file-birdsong\songs\songs\xc151150.flac,0.37730966244103775,4566.726995419036,7067.53753086306,-391.18445,-63.5914,-64.98471,10.187306,-19.607538,3.8192563,12.36029,13.8380165,4.884515,9.068293,4.0731435,5.06737,2.484153,0.50645673,0.4995011,0.4377527,0.42788815,0.43070245,0.45424637,0.5061155,0.48857778,0.48938408,0.50830626,0.49781656,0.5259524
..\file-birdsong\songs\songs\xc153129.flac,0.15071784251675355,2491.9138496751034,4874.729172968634,-454.40982,83.61209,-23.249594,15.196842,7.8190784,-1.3599201,-0.95337784,5.439259,-5.1534777,-8.271282,-1.8676078,0.87890804,0.41576427,0.55884844,0.5453664,0.4639549,0.49259317,0.532313,0.54405713,0.4949875,0.39182258,0.37067723,0.38803938,0.41638896,0.4981229
..\file-birdsong\songs\songs\xc153131.flac,0.24634038185586735,2990.957661839435,4780.778503417969,-347.81406,35.969036,-40.362713,11.915498,-16.554012,2.1712978,-4.999991,-22.95182,-16.055685,-11.919951,-7.539682,-9.182118,-6.7368827,0.43123934,0.39982092,0.4069723,0.37405363,0.39519548,0.42784187,0.48107827,0.5440293,0.5190812,0.45503837,0.4466164,0.4338511
..\file-birdsong\songs\songs\xc153833.flac,0.16135583227469344,2797.6245795460436,5241.784989907925,-364.11185,73.38179,31.968992,48.79258,-13.391251,29.242409,8.225607,-2.1696827,1.370995,1.3402394,-0.4653125,1.7405372,1.4081821,0.5678963,0.60302544,0.5627627,0.54040056,0.47699285,0.49246466,0.47914258,0.45882145,0.44347388,0.45120603,0.469996,0.5185332
..\file-birdsong\songs\songs\xc154285.flac,0.14518257180507746,2200.8248051527858,3828.717482233622,-354.65436,92.84056,-79.42722,-2.812952,-25.255674,6.9963045,-2.8510146,-7.666267,-14.774106,-11.204695,-8.437107,-0.17487991,-6.1447396,0.37519193,0.3845792,0.4522291,0.42973745,0.41207963,0.36073795,0.3347206,0.34933186,0.30733982,0.28752512,0.31711927,0.35383454
..\file-birdsong\songs\songs\xc155975.flac,0.2865454903088953,3688.6944675213613,6283.931300951087,-328.16638,16.406246,-45.68579,-12.143363,-41.087303,3.5377116,-19.855001,-19.86281,-17.723293,-1.4205921,-13.105718,-12.382102,-11.865348,0.38143826,0.3965447,0.33910236,0.29337525,0.30179438,0.35361323,0.41154838,0.39505944,0.36700952,0.47934744,0.6636875,0.4234802
..\file-birdsong\songs\songs\xc156262.flac,0.19855071154163914,3125.0481804019246,6060.96809422505,-284.80005,48.448345,-40.069263,2.499524,11.74054,18.252438,-2.8895602,15.862553,13.606088,-2.257128,2.3008342,13.361563,4.8214984,0.5560457,0.6275523,0.612309,0.5356776,0.4282673,0.3391556,0.30751348,0.3611171,0.417899,0.4469634,0.49096686,0.53042835
..\file-birdsong\songs\songs\xc156388.flac,0.2314131046229859,3124.129398000327,5967.386205390861,-374.6129,58.57571,-49.81701,-25.25011,57.5284,31.761185,-11.9346285,-19.904957,27.71367,-3.6617768,-2.1262343,-2.4382904,22.186436,0.7103943,0.29799268,0.124189526,0.103318445,0.11478126,0.094297685,0.1911197,0.32762128,0.32235968,0.22854026,0.52419555,0.8083708
..\file-birdsong\songs\songs\xc157279.flac,0.1669648894583488,3646.013175546283,6868.331895576012,-535.12177,13.4939995,14.152802,47.254776,-1.7450991,17.066307,12.499931,6.6184196,8.877487,9.212509,3.9925284,7.1266456,6.7262144,0.6926424,0.67653704,0.65202683,0.6119869,0.58917755,0.56229204,0.5277646,0.54774725,0.5805514,0.6533666,0.6344525,0.6348882
..\file-birdsong\songs\songs\xc157322.flac,0.1621311595172375,3350.1364239669406,6994.650393705639,-556.7345,39.31951,33.561703,43.219597,9.24159,15.540136,4.631578,3.8261733,0.30814573,2.1385558,-0.2665061,0.24185124,1.5062845,0.48485434,0.48160547,0.52100694,0.488035,0.4760748,0.5486343,0.5369442,0.52267355,0.5852188,0.63589245,0.5509746,0.5344226
..\file-birdsong\songs\songs\xc157331.flac,0.26921989208310165,3855.455954636284,6065.983738076001,-493.61713,-6.939632,-2.4174814,67.42794,-12.805065,21.156458,13.203086,7.5419607,5.986838,9.456994,1.0085088,6.489334,7.030412,0.5647406,0.5314991,0.44493115,0.36069468,0.3701597,0.34610197,0.3126355,0.35529363,0.41373408,0.49881175,0.45728102,0.50811505
..\file-birdsong\songs\songs\xc158166.flac,0.22016626502470577,3496.233019522832,4410.428464357095,-318.26587,-3.5958314,-3.6508417,114.7387,-13.585306,15.097916,43.355873,-9.06835,8.911831,-1.966274,1.7831092,15.139181,-1.2299943,0.3004588,0.29332674,0.35925606,0.3490513,0.26661387,0.23712452,0.21522932,0.18272163,0.18509243,0.23466276,0.3144591,0.3339643
..\file-birdsong\songs\songs\xc160879.flac,0.20920806826556268,2993.68915818188,4933.556665348101,-406.02838,21.044323,-61.53411,-7.358085,6.2843204,-3.1972642,-9.840302,-7.172498,-5.9119625,-7.3413563,-5.175826,-3.7047365,-3.2898605,0.5478481,0.5180619,0.4992799,0.47232804,0.4579778,0.5089949,0.5528024,0.623934,0.6609852,0.62829506,0.56803024,0.5552622
..\file-birdsong\songs\songs\xc164926.flac,0.5091229724364791,5935.255738035603,7830.840464071007,-487.09473,-115.95887,15.056616,42.43413,-32.518925,5.869224,0.07944079,6.392814,-3.6551692,-4.201242,5.9001327,0.21327755,-4.3675704,0.34359944,0.44612697,0.46971318,0.39224812,0.32692778,0.3065827,0.36620498,0.40387467,0.34137112,0.35561258,0.37218457,0.33096564
..\file-birdsong\songs\songs\xc25119.flac,0.2258211279595214,3366.75067960546,6625.801686211176,-228.67798,62.018307,-3.6095686,8.371536,-15.901087,0.3255254,-2.54292,-1.8004168,-9.566425,3.057519,-3.2543464,-1.7233641,-0.69570684,0.6566628,0.54001576,0.5390144,0.523523,0.5409603,0.5446819,0.64538896,0.7287756,0.5919852,0.55095047,0.5557722,0.5288962
..\file-birdsong\songs\songs\xc25754.flac,0.2450006624772865,3425.6152483154615,5599.102343276802,-210.77548,25.037437,-18.9288,62.198128,16.198355,-5.0454354,3.1526093,20.329489,0.8717726,-13.161105,10.6682625,5.9427724,-12.771191,0.13825908,0.20169903,0.38271186,0.53225386,0.47573435,0.4668401,0.4307738,0.30207366,0.16074082,0.13171108,0.13948247,0.121841714
..\file-birdsong\songs\songs\xc26578.flac,0.2292221828601525,3455.4137180082357,6750.8406392643965,-252.7447,48.758533,-30.725845,-23.031527,-33.531292,2.7940757,-5.5788293,-3.1251588,0.6602691,1.5249981,-0.7003826,5.142337,-0.21596707,0.6823293,0.668035,0.55663246,0.55717033,0.5335576,0.54359037,0.5634379,0.44576016,0.44832203,0.52558714,0.50631076,0.60280687
..\file-birdsong\songs\songs\xc26789.flac,0.2386491807173246,2855.5518849033865,4014.9121291269266,-472.41803,25.101604,-104.367195,27.235106,-5.985592,-8.9675455,-4.321872,-9.485923,-8.781452,-17.49754,-19.07222,-12.568768,-2.1113455,0.44577435,0.43928674,0.34498462,0.29749662,0.28999245,0.3407621,0.3615357,0.2878155,0.29624057,0.32099208,0.34652495,0.40861765
..\file-birdsong\songs\songs\xc27039.flac,0.17100754630546752,2069.7027760421074,2324.760099915808,-402.25583,28.706993,-180.42447,-25.54013,49.767048,42.626514,-25.496166,3.7637157,18.653927,0.17159666,7.1751537,37.454033,9.039572,0.955767,0.74296033,0.26593715,0.122519515,0.061517484,0.070777036,0.14064655,0.42597768,0.46665603,0.5341936,0.45769894,0.77143925
..\file-birdsong\songs\songs\xc27060.flac,0.21915264232477005,2884.9891985958893,4697.8647103205285,-448.7621,55.863613,-49.9494,28.50499,-29.255285,6.853145,-2.510784,-14.301191,-23.455046,-11.8937645,-19.704323,-17.314163,-3.367614,0.28678268,0.3121351,0.28023675,0.2293803,0.24081309,0.2712604,0.30628642,0.348587,0.41693968,0.44572523,0.35800776,0.30427673
..\file-birdsong\songs\songs\xc27080.flac,0.22252734375,2868.158607510614,4133.79791015625,-386.44226,13.823886,-120.9788,24.533155,21.447607,9.408331,12.008048,-5.275808,-29.523375,-10.570558,-2.4289114,6.8051805,11.674816,0.42066318,0.3877413,0.29909888,0.27385277,0.3611393,0.5672388,0.59645057,0.38400316,0.30012384,0.22054873,0.18867819,0.24462605
..\file-birdsong\songs\songs\xc27145.flac,0.14873015406820622,2188.8238741326754,3593.8418739720396,-281.03687,82.18377,-91.37666,-14.369036,-12.12647,31.321081,-18.934227,-10.788725,-22.579044,-5.898948,-3.5031426,-9.339625,0.21878423,0.2904329,0.32921642,0.41434366,0.48971745,0.54996955,0.6136728,0.6096481,0.5614097,0.4770589,0.41264564,0.34065393,0.3010534
..\file-birdsong\songs\songs\xc27152.flac,0.298451330865321,3332.575291244482,4503.724299796286,-399.33566,1.8264126,-87.340515,59.732082,-5.824429,14.7704115,15.315141,-17.950804,-14.328175,-13.18908,-2.8079932,-2.9102187,7.560337,0.3576792,0.30080822,0.23312023,0.2326087,0.2439215,0.3196499,0.38382968,0.4399919,0.4211164,0.39066356,0.35683212,0.33295926
..\file-birdsong\songs\songs\xc27962.flac,0.3401552424603492,3947.3678791274688,5265.527062139538,-499.47614,-42.027897,-44.76439,74.02588,-5.0619926,3.5914476,12.222588,-3.020503,-14.600652,-1.4936084,6.1807265,-2.0347238,2.6226225,0.2920913,0.24762192,0.1919328,0.22977208,0.30019876,0.3627992,0.33966914,0.38394135,0.41146347,0.48015296,0.36156258,0.33188435
..\file-birdsong\songs\songs\xc27999.flac,0.18544937923685292,2990.7316208588977,4948.067327043319,-343.9482,44.41049,-24.234873,65.66234,2.3970237,7.7172384,19.901869,8.148845,9.182985,9.050099,5.1458273,4.246568,3.5473537,0.40172872,0.37230617,0.39521822,0.40676668,0.44113332,0.46560028,0.48361626,0.4680956,0.5270624,0.5498331,0.47232935,0.42927054
..\file-birdsong\songs\songs\xc28926.flac,0.341580810546875,4200.623495276848,7029.594909667969,-293.14108,-11.06084,-55.720375,-14.132302,-27.399517,-11.036657,2.7270167,3.1121693,-10.171079,6.670907,-5.783225,-5.831975,-1.0654225,0.502737,0.497265,0.39595014,0.3752717,0.37267792,0.37848964,0.38834107,0.42393383,0.5450417,0.7084921,0.5730809,0.4818727
..\file-birdsong\songs\songs\xc28961.flac,0.21381289812210458,3179.3415500708074,6374.184399042439,-246.67224,66.01082,-25.779648,-9.109319,-10.443465,-2.6096509,-0.25141725,2.3776975,-4.000615,4.552633,-1.1644421,-1.2052515,0.24851532,0.6138632,0.5409425,0.51154464,0.50448924,0.50232565,0.5071092,0.53584474,0.60252357,0.62938535,0.6037623,0.6070709,0.59031767
..\file-birdsong\songs\songs\xc29230.flac,0.1136935493298005,1952.4271493028696,3757.866137877961,-241.58678,111.98265,-23.365517,43.283577,16.908903,15.459224,-1.3883492,11.878833,-10.19708,4.883354,-1.5833893,2.456162,2.1075747,0.5578355,0.56840134,0.57332486,0.59648216,0.6212114,0.6168637,0.60962486,0.585986,0.594289,0.6015485,0.61625314,0.58026785
..\file-birdsong\songs\songs\xc29766.flac,0.23707368879923413,3148.478125978795,5263.393351682166,-349.2177,55.755962,-41.107296,26.37792,-18.023731,-11.466688,5.187543,-10.736167,-15.953706,-1.4924494,-10.894801,-7.5378532,-5.7662525,0.3426345,0.3236826,0.32026374,0.33102545,0.31301364,0.37701532,0.51758,0.6737418,0.59804016,0.5161011,0.47834322,0.3977477
..\file-birdsong\songs\songs\xc30390.flac,0.28266286691708153,3547.5525185744186,6083.187314897648,-258.66443,50.90664,-30.280209,6.443553,-19.743214,4.580778,7.6181493,7.9762793,-2.7440326,11.150411,-12.3896,2.461899,-6.7193055,0.5302772,0.4511743,0.37224743,0.34837136,0.3149349,0.32973143,0.32054022,0.349849,0.5257438,0.5409379,0.5229407,0.47630727
..\file-birdsong\songs\songs\xc30614.flac,0.22749487754026074,3300.739866864242,5691.200816148629,-309.38684,59.44516,-3.9317877,1.8064878,-48.76415,-2.3728037,-15.198304,-11.971104,-20.27557,-10.426744,-18.635342,-16.2365,-11.150536,0.47199872,0.41392827,0.3975674,0.45089844,0.49322072,0.45068172,0.41549626,0.37991798,0.4272268,0.44410336,0.5087741,0.5233767
..\file-birdsong\songs\songs\xc31059.flac,0.14820687722839765,2155.7992186121237,3477.449721777999,-363.41107,14.369935,-182.24011,-63.376614,-69.836586,16.82025,-3.352773,42.40031,29.74536,25.013968,1.4219297,-12.279863,-6.845364,0.43348438,0.3188876,0.24679519,0.26171428,0.27913338,0.34591657,0.43744147,0.48283765,0.59122515,0.59499264,0.514426,0.47724324
..\file-birdsong\songs\songs\xc33392.flac,0.18887759074312716,2738.2036071729,4856.865762926868,-404.92334,57.772953,-36.921833,1.3607653,-76.47409,-38.91772,-21.491802,-31.839321,-18.82703,-8.010946,-10.915732,-1.85526,-5.6395526,0.29551736,0.3650633,0.6233886,0.35951844,0.2812616,0.30195045,0.39023998,0.4619872,0.2842004,0.3544203,0.32489923,0.31520882
..\file-birdsong\songs\songs\xc33395.flac,0.27779321195522033,3389.895788872319,4991.4129849137935,-370.8671,47.406754,-17.262953,28.500513,-76.752655,-26.086794,-12.363287,-27.670427,-16.020819,-20.195786,-15.791189,-12.296049,-10.108647,0.3524965,0.4149613,0.5015837,0.5120484,0.43627793,0.40116197,0.38977852,0.39123216,0.40263137,0.38333952,0.37758526,0.36049947
..\file-birdsong\songs\songs\xc35068.flac,0.3888502425799087,4836.874025789383,7161.953191887843,-537.7201,-201.62546,-99.89829,53.785183,12.584105,15.612567,-1.8094947,-6.091656,-4.0000606,-0.3524535,-5.749508,4.1383224,3.287195,0.6052696,0.5784738,0.49792024,0.49382097,0.4866323,0.48865986,0.4607484,0.46907192,0.51966023,0.5646152,0.65484667,0.6725215
..\file-birdsong\songs\songs\xc35578.flac,0.14664324162679426,2128.1932877619006,4076.5925211199165,-228.03038,117.92736,-23.854658,22.496683,-13.565597,33.36685,0.7145141,12.300539,2.1553776,0.12180271,8.220494,9.333854,6.5108113,0.49788654,0.39880434,0.30071858,0.30692792,0.33933327,0.38894254,0.38984978,0.33017358,0.23436947,0.21672957,0.35405725,0.5368056
..\file-birdsong\songs\songs\xc36637.flac,0.2536082462155276,3435.005037860852,6255.479420174797,-507.41418,52.243603,-23.143515,11.888023,-18.325308,-3.2200456,1.6544763,-3.249455,-0.07749816,3.7930949,-5.8307676,2.3055916,2.045445,0.60896754,0.50936073,0.4999194,0.48864126,0.47469038,0.46067414,0.5054303,0.60119224,0.6725706,0.70206714,0.63371706,0.61325294
..\file-birdsong\songs\songs\xc37447.flac,0.11982939837231824,1637.706811659028,2854.413431051661,-315.0336,102.42525,-39.47818,8.9439125,-9.692152,-36.56163,-12.970689,-21.826406,-24.557863,-13.212481,-12.020065,-6.7503834,0.4134291,0.33789605,0.57652676,0.3832648,0.4064568,0.3527349,0.2809483,0.3061124,0.42659765,0.42465776,0.2664078,0.25565308,0.26764658
..\file-birdsong\songs\songs\xc40186.flac,0.16501671048920052,2560.8437237268713,4952.53953472558,-265.44666,78.85028,10.023074,29.429516,-15.039345,-18.098549,-15.171247,-4.796922,-11.300855,5.353867,5.801131,12.859226,7.075116,0.634685,0.58926344,0.45235607,0.3304389,0.30556318,0.25838375,0.24734326,0.25804582,0.27336854,0.25482035,0.3276562,0.48177543
..\file-birdsong\songs\songs\xc41428.flac,0.14036927449472758,1973.4800746700096,3145.5317116789324,-396.2178,111.63623,6.8799,12.5997715,-47.63615,23.657705,6.0138392,-10.598779,21.728224,12.3151245,11.268745,-3.5045574,6.1701217,0.35250416,0.32137892,0.32855466,0.35362965,0.33680227,0.40594807,0.5067755,0.5192513,0.5531588,0.52831775,0.40678483,0.412593
..\file-birdsong\songs\songs\xc41816.flac,0.047783437601395196,1137.3349369565276,2014.4514139560351,-392.80423,131.60745,-4.576265,35.153687,17.468254,13.976773,13.619988,17.40661,-10.345776,-9.705566,4.1916137,0.41343805,3.526601,0.44800198,0.4220747,0.47224224,0.52129084,0.5304294,0.5696429,0.5951371,0.65983033,0.71168894,0.63577366,0.5328211,0.48089072
..\file-birdsong\songs\songs\xc42178.flac,0.3789353733740482,4593.0901018788,7611.331471089784,-296.07388,19.58377,-29.954058,-35.6713,-36.174072,-3.1543267,-7.1009855,3.0671906,-0.46803424,-3.1305676,-5.6245265,-0.035024382,-8.72089,0.56558084,0.48391134,0.46897548,0.32309443,0.25877044,0.29765,0.30853114,0.32031304,0.35245135,0.4257631,0.47925773,0.5260394
..\file-birdsong\songs\songs\xc42224.flac,0.2132120942864807,3591.501445099605,7560.815911681867,-330.54166,55.30045,-1.5191793,-1.7491907,-4.030507,0.7210379,-5.9838233,-9.900209,-18.666285,-13.891424,-14.74996,-7.908421,-8.969809,0.49023893,0.4851947,0.5470228,0.6222574,0.63438845,0.6435458,0.57144266,0.5086612,0.4868771,0.4660085,0.44624048,0.47610933
..\file-birdsong\songs\songs\xc42343.flac,0.21685877891219796,3197.69065605475,5501.027742327147,-485.56128,25.520472,-35.99514,29.81449,28.768503,1.6588169,-23.598923,4.6847243,-10.596246,-28.90446,-4.904134,22.972208,2.3967104,0.31997752,0.74698704,0.38774222,0.23812538,0.123930514,0.08422241,0.0526768,0.040532798,0.038246244,0.038607363,0.03990343,0.06814793
..\file-birdsong\songs\songs\xc42344.flac,0.2363481966403162,3322.3352146701354,5598.797928761117,-488.33908,25.05708,-39.04271,24.25287,20.876907,3.196048,-15.70302,6.276881,-13.638178,-28.65872,-4.9131794,16.354422,3.108696,0.39025483,0.4771203,0.43352544,0.4219941,0.3126894,0.19253455,0.16277884,0.16711628,0.15193756,0.14538488,0.15671214,0.24855645
..\file-birdsong\songs\songs\xc42430.flac,0.15991792935322433,2684.520627127671,5534.39516100149,-406.7976,77.8719,-32.40729,-0.90534866,7.154799,20.944727,-9.772218,-11.167869,-18.3853,-5.324776,-7.9885354,-8.611584,-5.59319,0.44502053,0.35882333,0.3943841,0.48223478,0.57034355,0.6957774,0.67713094,0.65777797,0.5695616,0.49326408,0.46709144,0.47985855
..\file-birdsong\songs\songs\xc42698.flac,0.3694740637938284,4515.570869171233,7940.70088607032,-253.46373,5.153195,-23.03753,4.5737658,-11.320577,-5.0186067,-4.64055,-2.0054145,-3.097492,-4.21243,-2.5358005,1.2097403,-4.1157355,0.58785164,0.60711616,0.62176776,0.6010623,0.5588484,0.52622193,0.5082919,0.48723242,0.4839872,0.50601405,0.51001364,0.5417571
..\file-birdsong\songs\songs\xc42803.flac,0.2751823719183359,3433.396547689872,5147.430918359977,-267.27048,7.650283,-90.03706,-4.802659,-40.863617,-7.2036076,6.502166,-3.566919,-6.256575,2.1305988,-4.572731,-5.494561,-3.6615572,0.411224,0.3474177,0.38207817,0.41600913,0.43593085,0.40155557,0.38522813,0.44302908,0.4760646,0.5472908,0.4943681,0.46208107
..\file-birdsong\songs\songs\xc43764.flac,0.19356937914823008,3263.317523763456,6653.2500194448285,-369.21124,53.312004,-5.4119296,6.8917828,-12.4928,12.52612,7.1278434,-5.842583,-8.68193,-0.320641,-5.620359,1.571359,2.532154,0.66651607,0.6655472,0.6400305,0.59121853,0.5549882,0.52990335,0.50958884,0.5052937,0.4812406,0.46346062,0.52138084,0.62425256
..\file-birdsong\songs\songs\xc43853.flac,0.25997708905951245,3804.2248159726937,7464.332525132947,-309.5916,26.062645,-41.130722,-25.939972,-25.91372,-7.5924816,-8.0393715,-3.8094666,-6.7933226,2.4560337,-3.0554137,-3.425539,-6.0443916,0.5792604,0.560134,0.54432553,0.55729043,0.5369773,0.5183713,0.56259507,0.61891955,0.70046747,0.70189553,0.617339,0.56555825
..\file-birdsong\songs\songs\xc44203.flac,0.29012825172004386,3627.559990902834,5990.2528668982895,-366.07434,64.80928,-22.103073,0.722624,-13.99457,8.26929,0.98779154,5.700741,-6.704255,0.3653985,-3.399073,-3.7643003,-2.3137984,0.4925712,0.48843822,0.5042824,0.5153072,0.45481902,0.41435614,0.41275457,0.46939445,0.52248365,0.53247344,0.5440246,0.5286851
..\file-birdsong\songs\songs\xc44707.flac,0.20660063386694785,2959.5899430958125,5010.89526217408,-319.59427,41.554573,-55.02617,12.058661,-3.8062901,-6.7530165,3.5437307,19.186129,0.7209141,10.537613,-17.274529,-15.842558,6.5423875,0.3977912,0.37039974,0.2029939,0.17040375,0.19929291,0.2505886,0.3492767,0.47047278,0.5595176,0.47235024,0.4317465,0.4189464
..\file-birdsong\songs\songs\xc46032.flac,0.25992166270380435,3681.921192660168,6618.952212126359,-371.91608,37.9037,-19.893312,-3.7337623,-34.697308,14.395356,5.1563697,-5.9919252,5.6848817,1.2371442,-0.86617047,4.906753,4.8033333,0.5316995,0.47123262,0.44163042,0.4212194,0.3942668,0.41260046,0.42165846,0.37721115,0.36852983,0.45459163,0.5194594,0.54896736
..\file-birdsong\songs\songs\xc46209.flac,0.1011169938016529,1573.4279702937586,2177.7720654700415,-379.70383,139.48009,-8.214025,22.77968,-6.9771976,7.800709,8.142683,3.3289585,0.9159751,0.79478866,0.31611094,-9.34247,-1.0127815,0.5044259,0.49835315,0.5292649,0.55925643,0.5256459,0.5552464,0.5642984,0.55711675,0.62302995,0.5972981,0.54390836,0.5092326
..\file-birdsong\songs\songs\xc46211.flac,0.10306966145833334,1921.4903473405252,3033.04736328125,-380.35217,110.42519,8.543481,38.78657,-11.38987,14.883875,5.0228004,5.2437525,-3.3234916,-0.033350084,-6.871804,-3.319188,0.60816216,0.5197908,0.4825419,0.45413327,0.45778647,0.47310203,0.50553346,0.4413854,0.3977877,0.41171348,0.50430816,0.61944354,0.6071031
..\file-birdsong\songs\songs\xc46223.flac,0.3231651475694444,3938.1267421467815,6189.381286621094,-255.33382,-6.480656,-53.93618,11.053389,-42.557213,-14.627638,-28.21562,-18.124533,-21.284195,-11.652244,-19.805967,-11.757144,-8.894321,0.47085774,0.4443455,0.43598896,0.44928253,0.42944294,0.41309917,0.43488547,0.4417066,0.46546966,0.4732175,0.48382235,0.48678854
..\file-birdsong\songs\songs\xc49443.flac,0.23359405757874016,3297.4302875600624,5162.787217027559,-344.98627,23.486301,-16.855839,67.22106,5.989786,13.688177,1.23085,4.5792885,-2.276002,4.045203,0.09034816,1.511705,5.4009056,0.28936753,0.30176973,0.33017474,0.3489766,0.3570877,0.36465162,0.3363217,0.3332092,0.3970137,0.39719284,0.3609648,0.3213588
..\file-birdsong\songs\songs\xc49540.flac,0.35484811686447165,4244.959178459965,6614.650456427067,-389.43982,45.16006,34.882477,43.28769,-15.816123,26.718212,-5.6112404,18.637812,-11.827714,4.072954,-0.51142967,2.9184327,13.1714945,0.3162137,0.28878227,0.25803158,0.2604287,0.27336168,0.3124405,0.31965888,0.3380218,0.4585996,0.593126,0.45607334,0.3339468
..\file-birdsong\songs\songs\xc53817.flac,0.21955426212436774,3368.2721004339182,5839.127490365126,-343.11053,21.357618,-15.249245,62.433105,24.114143,-0.821942,3.448081,25.98681,-6.726485,-3.781473,15.387723,-3.526415,-7.409337,0.19404048,0.19524622,0.23164105,0.30359903,0.4173556,0.62635005,0.58978236,0.5261337,0.44869545,0.2534067,0.21860623,0.20361446
..\file-birdsong\songs\songs\xc55184.flac,0.12878041345281308,3000.6672137937144,5192.706531448503,-416.57297,26.45374,17.579798,63.563606,-24.569115,28.653658,10.717231,-2.941506,8.174448,-1.8877485,-2.545341,-2.5144594,4.725838,0.47705027,0.51202,0.5337682,0.5641359,0.55131054,0.5368899,0.5857483,0.5852215,0.47405484,0.5022164,0.45031396,0.423095
..\file-birdsong\songs\songs\xc57919.flac,0.1983387082122093,3161.7882086939253,5999.483046420785,-262.7634,36.833763,-46.898315,-7.547738,-20.466293,-9.24885,-33.985313,-12.06973,-17.256453,-11.385713,-21.61265,-7.8851905,-5.411443,0.5693508,0.458383,0.43808606,0.3803461,0.34801206,0.3063229,0.3451631,0.3793414,0.40641496,0.41047966,0.47903907,0.6076092
..\file-birdsong\songs\songs\xc58571.flac,0.13229237432065216,1895.7133178521683,2761.546025455393,-313.98795,89.71275,-73.00255,-29.862144,-6.08746,11.191897,-12.735458,-12.591836,-7.46722,-6.5031404,-14.15219,-19.724098,-10.419438,0.16188753,0.14596334,0.21278635,0.28371188,0.3110444,0.27799934,0.2566981,0.3126136,0.38796774,0.45928618,0.4841435,0.28810835
..\file-birdsong\songs\songs\xc58573.flac,0.12093476483219774,2073.0634538584764,3768.1357339763335,-384.45865,87.06602,-35.825573,-17.478436,0.63503075,1.977852,-16.871284,-11.963957,-9.053497,-9.207077,-12.042233,-13.638335,-4.194379,0.305877,0.26241177,0.2867293,0.35218507,0.3755362,0.3960829,0.39638066,0.42617446,0.4868772,0.5133992,0.5179797,0.43146592
..\file-birdsong\songs\songs\xc58579.flac,0.15529742688553977,2371.103782413825,4442.4847998066325,-419.5148,74.99381,-37.203754,3.1170237,7.7406554,10.991758,0.9368798,-1.9830871,-3.5732427,-8.417563,-3.946504,-3.7129624,0.48633674,0.39565524,0.40863225,0.39010286,0.3889854,0.4262388,0.46777484,0.4318782,0.38937578,0.37290034,0.3715806,0.3822439,0.377008
..\file-birdsong\songs\songs\xc59776.flac,0.0759219514353759,1477.6682518316877,2406.3576255350476,-390.3537,143.92175,20.339289,4.649478,-8.039867,18.82487,1.5112334,5.10034,2.944857,2.693104,1.3220891,4.882379,1.7973379,0.6145562,0.6386606,0.65858203,0.65785486,0.65068847,0.6572211,0.6454314,0.5783829,0.5672308,0.58655787,0.5865857,0.56378835
..\file-birdsong\songs\songs\xc64685.flac,0.3397858926166966,4022.005460126466,6061.0941094170785,-369.4349,-37.96988,-84.491745,-17.668467,-68.07568,-44.588028,-34.21338,-27.832672,-16.427914,-8.424883,-6.8779345,1.4910715,6.137708,0.43385294,0.4237782,0.38521388,0.4405736,0.46446702,0.37061983,0.4051607,0.39547852,0.38070324,0.4749839,0.545516,0.52198017
..\file-birdsong\songs\songs\xc64686.flac,0.34817416309366755,4147.518342551951,6185.6114530940795,-393.2505,-67.52518,-103.51152,-25.886776,-65.700455,-28.721678,-3.9799712,4.2738037,14.401132,18.066816,14.277468,12.749678,4.7274065,0.44710624,0.38352785,0.38324273,0.39274782,0.39001405,0.3827588,0.39534995,0.43692234,0.3395187,0.35614678,0.41309187,0.45081058
..\file-birdsong\songs\songs\xc64728.flac,0.11064946739268479,2212.223417165305,4655.189182009223,-352.70517,98.67404,-8.818509,-10.908701,-12.817103,2.5053482,-9.92848,-8.297016,-12.328288,-5.2022758,-5.151636,-3.9666808,-3.7439952,0.30025598,0.3051317,0.30015218,0.36335862,0.44225407,0.4735049,0.42834008,0.3911868,0.38356838,0.37623665,0.37427312,0.33169708
..\file-birdsong\songs\songs\xc64735.flac,0.18431778827393341,2523.2824096699774,4366.095942438703,-354.7889,83.529854,-44.07057,23.332336,-12.328957,2.1636074,4.009682,-8.052638,-20.685017,-11.608779,-9.457759,-4.1588387,-1.2036196,0.39115182,0.39239314,0.4539106,0.46211886,0.40458038,0.38645002,0.40766925,0.4363587,0.41891873,0.4191488,0.4643587,0.4566971
..\file-birdsong\songs\songs\xc64738.flac,0.21450091422872342,3119.049947685041,5639.484811336436,-435.64072,52.545444,-11.614997,32.458,-13.479878,-9.613951,5.060241,-4.3350573,-16.187992,0.30968004,-6.096226,-11.294946,-3.8606367,0.40652472,0.35547975,0.35800445,0.3697485,0.42653143,0.5406608,0.57988775,0.55311024,0.53013575,0.5959248,0.63923985,0.5287239
..\file-birdsong\songs\songs\xc67089.flac,0.11371049329890925,2855.3524911105806,6892.691367948987,-481.88828,72.132225,38.5345,6.525485,-3.193458,-14.950143,-10.9858265,-7.137958,-13.365916,-15.056249,-19.963713,-17.018713,-17.99825,0.36202833,0.33508155,0.3230551,0.34673133,0.36291078,0.3753335,0.3744539,0.39029405,0.4089372,0.44238046,0.48203433,0.41751793
..\file-birdsong\songs\songs\xc67229.flac,0.14150514855849006,1813.6466087168017,2272.884375648161,-334.29266,116.53596,-123.40099,-52.546494,27.756657,37.22979,-24.324375,-23.624863,-3.1785846,-13.809014,-37.60394,-10.921706,10.049256,0.4648854,0.18730731,0.11194177,0.07426228,0.06809143,0.09382177,0.19837137,0.37196556,0.38306016,0.25851762,0.5146359,0.8290406
..\file-birdsong\songs\songs\xc67307.flac,0.3702250436567437,3979.789379148679,5426.915282488846,-355.6719,41.242332,0.19287309,43.6345,-53.541107,20.576384,-0.86110353,-29.205313,-3.2797315,-8.3844795,-19.163883,0.97803044,-8.708276,0.541725,0.4681263,0.43055552,0.40103012,0.28011754,0.17012079,0.20766218,0.20522691,0.1750424,0.18410607,0.36405432,0.5537827
..\file-birdsong\songs\songs\xc69792.flac,0.3283311336888171,4302.46207374878,6385.560866199651,-389.9959,-107.16481,-80.76701,58.66634,15.192192,-6.658003,-9.606879,6.0535975,-7.6438394,3.861631,2.5591047,1.0747321,-3.7687628,0.25835404,0.263264,0.3518427,0.47818273,0.5228283,0.74970466,0.6665231,0.6928208,0.499577,0.3729071,0.27681842,0.2503241
..\file-birdsong\songs\songs\xc69855.flac,0.24686593055101375,3219.7097276816407,5381.427716491579,-291.79343,41.548805,-54.403,6.7263913,-15.8967,-1.5271921,-16.128357,-4.3621182,-10.265882,-8.99803,-14.764213,-2.54332,-3.8044295,0.46761915,0.49182954,0.4462686,0.3632717,0.28289962,0.26660746,0.29415593,0.31032002,0.33300614,0.340444,0.39825636,0.46061867
..\file-birdsong\songs\songs\xc70124.flac,0.25607769691780824,3203.565032715479,5108.348325128424,-378.50034,65.06983,16.27155,26.85961,-25.931469,-2.147483,6.405299,-1.903606,-4.645748,9.159973,-4.8954315,4.394298,0.77306706,0.43975058,0.40537423,0.3558117,0.3326731,0.4068446,0.423811,0.43370587,0.47406638,0.48246202,0.5323699,0.5189166,0.48204562
..\file-birdsong\songs\songs\xc70129.flac,0.39017427884615385,4163.044166317121,6191.381494482081,-380.40988,-5.332194,-85.147385,-5.105861,-32.772125,-24.553234,-25.167727,9.463422,-11.943742,-5.463877,-12.32007,3.7826393,-4.3131175,0.34208453,0.37111065,0.30104807,0.3119747,0.3400835,0.32239643,0.24988756,0.22961618,0.2392516,0.4381011,0.3143168,0.2637505
..\file-birdsong\songs\songs\xc70132.flac,0.3228289947058513,3797.538898888119,5658.110667181559,-398.516,-7.725428,-95.615364,-22.58874,-36.0229,0.57784146,-13.007449,-1.5375222,1.4399322,0.9952626,1.2046751,5.232412,2.9657996,0.46945328,0.49683487,0.47644693,0.4462419,0.44152254,0.41507033,0.45101303,0.4410025,0.42642495,0.46567994,0.4969007,0.4943991
..\file-birdsong\songs\songs\xc71024.flac,0.3394847565874036,3750.5508251272454,5337.111834093465,-360.23325,29.050169,-70.00961,-12.065119,-55.107796,-19.739086,-29.758526,-12.521513,-18.118147,-21.645624,-16.193853,-6.4077234,-9.627948,0.3699948,0.40170938,0.41973516,0.42703503,0.41568,0.384479,0.31773877,0.2918476,0.3181147,0.40253806,0.4537821,0.4433477
..\file-birdsong\songs\songs\xc71454.flac,0.3957439066896101,4679.54470382122,7603.765221500704,-220.38208,18.636822,0.690555,-5.32733,-23.136492,2.2860146,-20.259779,-9.091977,-12.92983,-11.744781,-10.183044,-5.297369,-12.340477,0.4424443,0.5006511,0.5919449,0.51202214,0.4420556,0.41032693,0.49022892,0.5077246,0.42536014,0.42072687,0.46031335,0.46631384
..\file-birdsong\songs\songs\xc71748.flac,0.3627162468786016,4060.266595371899,5936.198654497215,-434.30936,-2.2759542,-41.725178,25.55201,-27.30159,13.053469,-1.6022652,-1.073495,1.6453813,-5.1262007,1.4935374,-0.8147992,-1.6080132,0.55165416,0.6492593,0.6092821,0.5736662,0.5704598,0.56500626,0.52876854,0.4745486,0.44622862,0.41560745,0.40824646,0.45134896
..\file-birdsong\songs\songs\xc71943.flac,0.21246479832848839,3404.8256519179504,6691.9436432594475,-435.50662,48.85359,-20.991585,-0.43166053,17.335129,7.760288,3.564798,20.535471,19.263262,10.407758,3.3352377,9.548558,-3.3815458,0.5777327,0.65233237,0.59911746,0.5053646,0.44043338,0.43948984,0.50592214,0.52837586,0.48384914,0.47413537,0.4758536,0.4966277
..\file-birdsong\songs\songs\xc72629.flac,0.4895515625,5801.615605441629,7771.556953125,-435.8658,-189.15741,-22.401785,63.496105,-0.19090366,-1.8746907,-21.297997,12.054004,6.191821,1.0135949,-5.7413564,9.065911,-9.578088,0.3071703,0.23596162,0.25390056,0.4387698,0.7597721,0.3269942,0.19912581,0.21506058,0.2216709,0.23745146,0.35987023,0.52955055
..\file-birdsong\songs\songs\xc72861.flac,0.18440226928773829,2972.7211658143883,6067.531900538544,-276.13354,77.17571,3.205695,13.492341,2.126542,5.9027367,-1.4479574,6.896385,1.8868042,-0.57959455,-3.3060925,-1.2008681,-4.2914753,0.4101096,0.45740357,0.46272954,0.40658233,0.3982713,0.4298447,0.4326421,0.537145,0.5833171,0.47522154,0.44659328,0.43062714
..\file-birdsong\songs\songs\xc75092.flac,0.1114093294411447,1996.555745161216,3777.8640648201267,-467.94223,90.87774,-11.15619,40.179165,-21.232271,-21.097536,-19.544847,-32.217655,-26.089472,-14.526491,-18.277128,-3.6533153,0.3211682,0.367299,0.23217908,0.16911042,0.1466502,0.17623901,0.18702345,0.21043444,0.27621514,0.4261674,0.6158025,0.6701106,0.5491366
..\file-birdsong\songs\songs\xc76241.flac,0.24986965530988195,3424.548339303005,4718.776784811143,-401.39993,-82.396385,-111.18074,45.657093,31.79061,-3.566488,-9.218272,8.328943,-10.952396,-8.970076,15.54197,4.743675,-20.91566,0.05858332,0.08607347,0.17715031,0.3061546,0.33978233,0.3788241,0.44582146,0.3986763,0.249062,0.13741873,0.11519236,0.079522125
..\file-birdsong\songs\songs\xc76740.flac,0.18961111393865362,2512.0730555759487,4235.751730456026,-327.25427,108.5591,-15.886873,22.04221,-36.91879,6.7578254,15.140795,-5.406899,-0.69237983,4.8052616,-3.0244231,3.7559817,-0.42408472,0.562025,0.5455932,0.5448501,0.5665753,0.45536327,0.39732045,0.40363023,0.4561336,0.45835537,0.47008097,0.48220655,0.53131765
..\file-birdsong\songs\songs\xc76742.flac,0.15523719421904958,2127.155904056694,3582.901469899086,-297.66153,129.99376,-29.710026,1.8857601,-32.21162,10.892181,9.725424,-5.534665,2.9073644,7.3389974,-0.31751555,0.89415544,-0.54837227,0.47698462,0.4750105,0.49286392,0.532245,0.5115983,0.5070833,0.5132693,0.545723,0.54975015,0.5579069,0.55135065,0.513242
..\file-birdsong\songs\songs\xc76760.flac,0.25358066351099234,3343.877742582766,6062.877900930314,-365.35602,65.627945,6.3516803,28.148144,-23.029427,-3.549812,4.925307,0.5840329,-0.34757802,4.682919,-6.5461717,2.179322,-1.995519,0.52314615,0.49608552,0.41009662,0.38945493,0.38032877,0.39033487,0.4295501,0.47162986,0.5335842,0.5767804,0.5420768,0.52616566
..\file-birdsong\songs\songs\xc76761.flac,0.19771751872482377,3105.7570810792504,6351.481734445808,-378.5454,72.108696,8.293585,23.734169,-9.919741,-4.605449,-0.9838255,-1.8948367,-2.952974,4.347387,-5.2060647,3.075631,2.5845685,0.51659584,0.4826338,0.44250068,0.44733807,0.48578236,0.48669115,0.49187994,0.46781653,0.5208114,0.5742903,0.5731516,0.5243942
..\file-birdsong\songs\songs\xc76762.flac,0.2656827710896829,3383.0070656982953,6209.20051975494,-356.27542,66.99579,3.1569626,19.597841,-22.69086,-0.7164172,5.079923,7.864149,0.3864329,7.572392,-6.109186,-0.60202736,0.9235236,0.47770023,0.4257012,0.35857806,0.3556976,0.38929015,0.40247512,0.43691143,0.50607,0.59295315,0.62021285,0.5999559,0.5711423
..\file-birdsong\songs\songs\xc76765.flac,0.2558004728618421,3284.1495668318807,5733.3422645970395,-399.69464,58.54455,-4.409583,34.149353,-20.352774,2.9601245,8.10229,2.033053,1.0531389,7.887944,-6.1860623,3.0361686,-6.9624853,0.43305114,0.41807792,0.32454202,0.3008308,0.3135698,0.31909823,0.32846558,0.36127433,0.40680152,0.52240336,0.5922574,0.50526536
..\file-birdsong\songs\songs\xc76767.flac,0.27174499137269936,3988.1013274664115,6418.083481115797,-285.93924,18.045162,23.633923,49.568394,-22.022371,14.973145,-0.53781605,7.4536104,6.7213,7.3244114,6.5460534,4.6871295,3.6238317,0.49190876,0.587327,0.64138275,0.5666296,0.48803777,0.4851852,0.5122602,0.5619989,0.49946398,0.40062746,0.40218106,0.43197837
..\file-birdsong\songs\songs\xc77429.flac,0.28705264176633916,3773.573423832542,6085.523738478148,-297.90884,17.156725,-16.540215,48.55427,-2.4115624,-4.2708178,1.2515038,5.916682,-4.0053015,-1.2394791,-3.5427196,2.5780437,-2.7832716,0.34162617,0.36600357,0.3879255,0.37225783,0.34256157,0.353101,0.3863699,0.3886111,0.4414777,0.4332127,0.371073,0.35486072
..\file-birdsong\songs\songs\xc77645.flac,0.31535161927688954,3334.4743862082223,5579.50957542242,-322.13736,93.90064,8.764539,2.6471672,-28.10308,20.808796,-27.414547,6.355801,3.8084154,-20.259604,11.758217,-14.997737,0.96381956,0.38521203,0.35724628,0.408284,0.41280493,0.42694843,0.5651074,0.69400567,0.6132769,0.452206,0.3524284,0.32135564,0.3225408
..\file-birdsong\songs\songs\xc78951.flac,0.3240138647082158,4003.268357879389,6659.089916751146,-288.62103,18.727657,-23.594185,10.597616,-22.83254,-14.247885,-8.269764,-6.3794723,-25.648619,-11.286796,-3.3373537,-10.688182,-5.685178,0.4266284,0.39962354,0.41999656,0.4306942,0.45843196,0.5117278,0.5397367,0.5442816,0.55124253,0.5455479,0.43257234,0.417613
..\file-birdsong\songs\songs\xc78958.flac,0.4184870391825317,4565.506632303769,6298.13826872495,-332.1704,-27.216204,-59.580765,26.705763,-31.845514,4.018942,-21.510366,-2.7286413,-23.638292,-12.484948,-8.386459,-8.598688,-4.134149,0.19958068,0.22639556,0.25278416,0.30654228,0.37947935,0.40769276,0.40013722,0.36276513,0.37232617,0.43969715,0.32215032,0.22581571
..\file-birdsong\songs\songs\xc80356.flac,0.28533554667354305,3835.0064373600653,6802.493231046931,-333.92465,24.975603,-3.0983737,43.346275,12.368344,9.118897,4.4561906,0.8032565,1.9323734,4.361156,-7.5893393,0.26839465,-2.0544372,0.49516302,0.44564807,0.40482953,0.38363543,0.3322062,0.40530774,0.44792473,0.45324686,0.4452313,0.44291833,0.49647048,0.5714053
..\file-birdsong\songs\songs\xc82701.flac,0.12432458314308795,2273.557373995773,4391.775129403449,-445.7854,76.36387,-53.525894,-32.005974,-20.385082,-23.700327,-32.38307,-18.946154,-21.376333,-27.371067,-18.776085,-5.657648,-1.5297995,0.43209934,0.48081794,0.53708005,0.6070532,0.48495215,0.40484783,0.41900474,0.39201728,0.37488103,0.38530004,0.37707844,0.38679838
..\file-birdsong\songs\songs\xc82715.flac,0.3568050619188126,4256.299200300395,6163.964110280311,-401.01007,-41.12196,-73.64104,10.467527,-45.748222,-17.959911,-21.975864,-17.053562,-15.683222,-13.95167,-11.305537,-5.2100577,-8.505686,0.4547784,0.43392485,0.41785362,0.4632347,0.5097848,0.46061385,0.42830312,0.43165478,0.42036408,0.43176013,0.47600913,0.4705136
..\file-birdsong\songs\songs\xc82971.flac,0.10492786386395028,2004.0680570084492,3938.3157803867402,-365.80267,73.08703,-17.56158,0.55182207,-68.9184,-55.843204,-24.612774,-43.8548,-44.18668,-20.564817,-21.825727,-1.3735816,4.127043,0.4018593,0.2804896,0.20937084,0.15743053,0.14873622,0.17582032,0.31828615,0.44320202,0.5043759,0.50899196,0.4922746,0.4928592
..\file-birdsong\songs\songs\xc83357.flac,0.3198104427899687,4472.779597907484,7543.038022032352,-356.04776,-80.27987,-80.857,11.914978,28.092054,19.812525,-3.196466,-13.230836,-12.356843,3.1361203,7.537581,7.653602,-3.5447195,0.34102076,0.3107758,0.35486403,0.39519742,0.41729426,0.40313026,0.42455626,0.4115113,0.46554667,0.4468203,0.40840054,0.3903542
..\file-birdsong\songs\songs\xc83705.flac,0.3668982100813356,4439.915062760315,7228.4271240234375,-543.7595,8.29441,-0.016068341,27.51948,-21.884623,7.660454,4.4899697,-8.409036,-3.030359,-3.696086,-1.9119039,-6.0370255,-1.4725634,0.48019424,0.4853769,0.4986412,0.5399822,0.52427906,0.50783277,0.4694229,0.45022425,0.47370467,0.5115545,0.58205646,0.5317979
..\file-birdsong\songs\songs\xc83760.flac,0.45540351655579825,5163.494991282985,6493.48363656672,-318.1661,-14.724691,72.63124,43.32575,-46.681736,70.82668,-42.63334,20.264812,9.812726,-15.871918,19.522596,0.07246875,-0.4038437,0.103767484,0.1659617,0.2845309,0.46567944,0.45913354,0.5110748,0.50559664,0.5313524,0.33197376,0.28281078,0.16107701,0.09281552
..\file-birdsong\songs\songs\xc83894.flac,0.24373614598834326,3468.2471116485244,6361.662292480469,-523.39734,34.596214,-28.042887,21.708754,3.2834256,5.964312,2.2564538,-3.2417681,-17.190845,-2.4553397,3.395254,-7.2155704,-10.864589,0.32502297,0.32697776,0.3440107,0.36756918,0.42413557,0.5158096,0.5341974,0.47765115,0.37231424,0.31200993,0.32205367,0.34824008
..\file-birdsong\songs\songs\xc83912.flac,0.19730806911293194,2594.031807680244,3805.6388569591645,-405.33444,56.39407,-73.09145,27.38935,15.566527,-4.4374456,-11.635683,-1.4692388,-6.7473903,-15.7436905,-5.6486387,3.3357255,-2.483107,0.34637195,0.3715358,0.35775298,0.28511778,0.28105846,0.27984554,0.25976846,0.20375557,0.15748279,0.14631371,0.19381556,0.3240584
..\file-birdsong\songs\songs\xc85842.flac,0.26998222736186905,3831.8519591693735,6569.0957937201565,-367.26297,3.118332,-46.38607,-21.579273,-21.081978,-20.986113,-25.67106,0.25975937,9.494006,-7.24359,-1.1453121,22.5158,2.9934814,0.48120403,0.5894644,0.51313853,0.42983484,0.30687824,0.2446273,0.24151386,0.23743017,0.24264972,0.26231816,0.32029575,0.39936885
..\file-birdsong\songs\songs\xc86327.flac,0.3884995540472525,4520.040659944263,6244.317791756721,-465.6703,-39.087902,-38.39034,28.452496,-47.95023,-5.796216,1.1759607,-7.5670033,-0.77502805,7.6633115,3.9207475,6.9668965,-0.06657203,0.4147493,0.3344175,0.29657438,0.29878464,0.29724726,0.29992107,0.3511133,0.34768608,0.35032514,0.40270054,0.35809967,0.3562963
..\file-birdsong\songs\songs\xc89530.flac,0.17332380531478103,2873.376576639483,6124.349463247035,-299.81253,79.19014,-11.158194,16.877382,-26.563871,7.199822,-17.81193,11.37216,-12.7009535,9.368306,-13.33863,1.7386531,-9.148389,0.5885516,0.5192461,0.49552134,0.52185416,0.52159894,0.53703874,0.5701416,0.6621918,0.68850374,0.6571911,0.6510254,0.61127335
..\file-birdsong\songs\songs\xc89994.flac,0.08304531195946725,2139.2161011961975,5117.351320836817,-272.6778,93.05533,29.94474,34.69472,5.8491297,12.36706,0.77616215,2.4379365,-4.3961825,2.3579984,-3.2097816,1.248595,2.1621442,0.4518693,0.4037824,0.39860657,0.4209441,0.44980696,0.49287084,0.5187878,0.56570977,0.5692451,0.50343186,0.46778807,0.48113793
..\file-birdsong\songs\songs\xc90122.flac,0.29997597144838095,3898.038234408889,6095.4287290906705,-506.33264,-19.128935,-60.637142,-9.1513815,-60.01368,-3.341273,17.25544,5.9984508,11.321363,11.24121,1.8968287,2.7775629,-4.1863785,0.6028418,0.49939498,0.4387419,0.4259031,0.3329558,0.28832972,0.32763913,0.39624774,0.42065445,0.46707162,0.5173404,0.5962056
..\file-birdsong\songs\songs\xc90977.flac,0.2838557584555827,3677.844256220088,6752.379028021852,-174.75826,46.063034,-10.739837,17.19897,-12.659745,-0.46858832,-4.4799385,-3.5266187,-2.8975465,-0.5154324,0.9885874,-0.7093481,-4.7449436,0.4937357,0.4854372,0.47082305,0.50000155,0.51147336,0.52193916,0.511386,0.49143398,0.49292544,0.47315618,0.42366546,0.44204736
..\file-birdsong\songs\songs\xc91185.flac,0.2472626002488938,3416.335253178443,6170.787169870022,-180.95549,54.864983,-3.4348905,22.853989,-11.207193,-7.658997,6.500929,-6.1279125,-11.974928,6.463449,-8.889795,-6.8313065,1.4856136,0.3644131,0.36945158,0.3519666,0.3720909,0.39408344,0.38451114,0.3569863,0.41877976,0.66885906,0.57397425,0.40297467,0.3369697
..\file-birdsong\songs\songs\xc92264.flac,0.05711506031177662,1429.0503709545285,2761.7329915364585,-371.02637,128.75807,3.2289762,7.607121,-15.369221,-4.3021398,-21.822084,-6.44451,-19.06503,-11.308797,-21.050669,-12.6519785,-16.609129,0.31202206,0.291302,0.22196676,0.24441968,0.30379757,0.3529394,0.41047174,0.4785085,0.4811779,0.42604485,0.29079264,0.26519164
..\file-birdsong\songs\songs\xc94211.flac,0.42217597935457796,5156.969952168494,7834.245434287781,-540.19446,-104.005745,-39.695126,47.638092,12.043326,-11.151625,-12.87788,-1.4739938,11.929064,8.373015,-14.047779,-1.8513268,2.771084,0.56631577,0.45870936,0.43677232,0.4150928,0.35445538,0.31704536,0.3254593,0.34514782,0.4016297,0.46818644,0.5245738,0.64427334
..\file-birdsong\songs\songs\xc94212.flac,0.42185106464460786,5209.1515308391345,7901.975450158757,-559.0574,-124.608765,-28.947779,65.06978,0.27512848,-32.455486,5.825421,7.9323893,6.664972,-2.9036562,-18.135454,16.465975,4.446593,0.68941545,0.540789,0.39303192,0.32914272,0.3080556,0.24616358,0.21224472,0.21212378,0.25175622,0.33631402,0.5449638,0.68014973
..\file-birdsong\songs\songs\xc94584.flac,0.04975731318981006,1468.2614469930982,2908.6681577459253,-324.60492,108.30474,-10.153129,-1.4345515,13.506903,36.921715,27.661661,10.482147,2.2624485,7.003632,6.9682426,12.100221,6.8440037,0.5069742,0.5319063,0.58849865,0.62604517,0.61330146,0.59529793,0.5204162,0.4422814,0.43246174,0.4605082,0.44342288,0.46681613
..\file-birdsong\songs\songs\xc94614.flac,0.09528793501159111,1799.5659214361688,3662.5461977020163,-331.42117,129.79282,16.551884,9.669353,-13.020588,9.77765,13.966236,7.77585,-6.4448185,7.6119323,-2.9375277,6.7782497,5.673445,0.56678087,0.4769605,0.4493771,0.41648418,0.400111,0.41294032,0.43692893,0.50110507,0.55819136,0.6050632,0.6261501,0.6023222
..\file-birdsong\songs\songs\xc94615.flac,0.06722849873170327,1569.871486031525,3484.1596591972307,-335.4161,134.0236,31.7794,11.5413265,-10.069772,13.244672,10.777233,5.952695,-2.3775394,3.6525433,-0.783811,6.7835183,6.3377166,0.593093,0.57348454,0.48440155,0.38864207,0.31809208,0.29536605,0.3453255,0.45139107,0.44729137,0.44616905,0.53466266,0.59235334
..\file-birdsong\songs\songs\xc94652.flac,0.4548078531154434,5576.349996961497,7194.493397004014,-654.1841,-121.294464,39.84003,32.862377,-53.12008,26.555668,12.060883,-25.094204,10.245762,12.663564,-17.784285,5.0294957,11.605278,0.3820727,0.33394167,0.20717143,0.15896517,0.12914631,0.15017858,0.34740052,0.14317042,0.08623785,0.1468638,0.2541675,0.59304863
..\file-birdsong\songs\songs\xc94669.flac,0.4533444695723684,5444.6355014715655,7936.583341899671,-673.17426,-96.27847,-16.95932,50.201393,-6.1572757,-13.201414,-6.5085835,14.101478,8.860452,-14.292059,-3.0949605,12.644105,-0.109377794,0.47256017,0.6485988,0.6926168,0.66260505,0.5024003,0.3723267,0.32494912,0.2809882,0.30988368,0.34193578,0.31156212,0.35560095
..\file-birdsong\songs\songs\xc94958.flac,0.21248100869876071,3048.4252972770446,4408.990053771449,-505.21835,-64.11316,-125.86801,15.719504,64.79829,16.041807,-22.697996,-22.490671,-3.2237556,12.259952,11.449509,4.8511434,-12.521773,0.3914053,0.32956275,0.25100896,0.19959944,0.23629457,0.381596,0.4915704,0.51052445,0.47836238,0.41712305,0.3995243,0.39009416
..\file-birdsong\songs\songs\xc94964.flac,0.37575153226693053,4772.4476103883335,7255.4489739652045,-610.44965,-127.70766,-54.053127,65.340454,16.988157,-20.754095,-12.849448,3.47651,11.159359,9.927103,-13.470618,-5.7574267,6.127485,0.4247099,0.4426958,0.3590823,0.3143292,0.2934988,0.31459942,0.3531049,0.39248416,0.46529156,0.46381077,0.48830435,0.44817728
..\file-birdsong\songs\songs\xc94967.flac,0.37617886902559927,4571.590955011485,6265.891271513854,-560.74677,-85.72029,-41.970413,57.319454,5.0618863,-25.645695,0.76633537,6.785949,1.6585199,3.3414364,-8.12143,-1.5549306,5.1656733,0.41670144,0.37351644,0.32902914,0.34053254,0.33910757,0.33811414,0.33385995,0.30289343,0.33908543,0.37587819,0.4285344,0.44998315
..\file-birdsong\songs\songs\xc95058.flac,0.4102766222710587,5082.374579112849,6602.897141705709,-596.2994,-118.68893,5.978398,64.121956,-52.318913,5.044096,17.438717,-7.577814,-3.3110764,-0.80828553,5.844025,0.8949708,-10.009989,0.48511374,0.3546064,0.27390346,0.27685678,0.2590059,0.23615886,0.2596671,0.19661751,0.2090667,0.24362475,0.2577128,0.37408432
..\file-birdsong\songs\songs\xc95381.flac,0.14992745869467702,2512.460997310871,4952.984443920081,-363.88336,82.17716,-24.693602,-2.5486822,-39.6147,-9.268322,-4.1190825,-13.881196,-18.044867,-12.025235,-9.448605,-1.6590868,-2.287511,0.49688005,0.4394689,0.45160317,0.48742858,0.47875476,0.45093715,0.42267612,0.426601,0.42029732,0.41904196,0.47278163,0.47810847
..\file-birdsong\songs\songs\xc96133.flac,0.2699837250843134,3465.935557692817,6035.683842028601,-366.57687,39.693466,-34.601025,3.2235744,-37.926205,-12.261625,-7.0556684,-7.4098544,-19.790333,-2.0813267,-12.237552,-9.634611,-8.335299,0.27826682,0.30382407,0.30756828,0.3352436,0.37099367,0.36192387,0.28671294,0.41932335,0.5797079,0.49972737,0.4941749,0.34849146
..\file-birdsong\songs\songs\xc98691.flac,0.18443122796252764,3056.359538129216,6262.833276259161,-432.0417,76.43954,-0.41369534,4.891387,-5.5869107,15.663963,-6.505926,-2.7653294,-10.578543,-5.4117603,-12.363003,-6.9767103,-9.435569,0.6287445,0.6158698,0.56170845,0.5657694,0.56061125,0.58328384,0.5615233,0.54705703,0.53262293,0.5029115,0.51773405,0.5715537
..\file-birdsong\songs\songs\xc98842.flac,0.40321612330594003,4341.84080394652,5993.470294252811,-389.69943,30.963055,-10.3286295,34.7473,-28.71693,22.145456,-22.640347,4.7683296,-5.0383925,-4.73923,-4.551957,3.576146,-2.602412,0.31983685,0.32868576,0.31449574,0.349191,0.42071822,0.36122245,0.26069513,0.22968829,0.25113267,0.28702617,0.3325168,0.36950162
..\file-birdsong\songs\songs\xc98942.flac,0.12235824516535874,2230.3419834422325,4600.477114279708,-265.50455,102.08741,-13.345737,14.115172,-2.486296,8.564482,2.367361,3.9409618,3.7243128,10.952536,3.1500583,3.5581417,-2.9569504,0.5040154,0.45551065,0.4182445,0.42713958,0.4584224,0.46640903,0.49340266,0.4697545,0.4806658,0.47270247,0.60482043,0.7685827
..\file-birdsong\songs\songs\xc99072.flac,0.17588588169642858,2611.0016568597002,3903.40576171875,-569.4969,-62.66371,-126.82236,18.688274,59.122112,38.061905,-48.00723,-28.329374,15.821785,16.97504,7.0404925,-10.40678,-7.9416337,0.16094808,0.08316307,0.10075591,0.06379908,0.03492771,0.060540285,0.1464779,0.2049129,0.28413495,0.4201128,0.7061133,0.26007864
..\file-birdsong\songs\songs\xc99155.flac,0.2327843969994849,3244.07671814974,5563.234652005709,-434.45563,42.127953,9.917333,57.378273,-11.784543,16.278526,11.6461935,-0.9619691,-7.594647,-4.4235773,-7.8732104,-1.9532545,1.7750794,0.532609,0.54967904,0.5184324,0.48617062,0.4815087,0.4667242,0.46366027,0.48093942,0.50404465,0.5296738,0.5280374,0.49802783
..\file-birdsong\songs\songs\xc99299.flac,0.2781423237509356,3626.866718842118,5594.853219586218,-427.51978,40.251194,-11.613632,46.46604,-16.417608,3.1398056,-7.530576,5.2765555,7.3579526,2.8435798,2.5515664,3.9727955,9.770739,0.42655236,0.3793729,0.27630016,0.29933098,0.36979777,0.3584146,0.38324678,0.34119153,0.35116336,0.3644356,0.40484926,0.42985794
..\file-birdsong\songs\songs\xc99357.flac,0.27326131959126143,3513.3424850303877,5176.732262899709,-377.82465,17.846224,-22.433912,74.83723,-11.058959,7.40911,-1.0469135,10.242362,1.987074,2.3549232,1.6308413,0.9858755,6.9951453,0.33107695,0.3463084,0.32104716,0.29827133,0.3432174,0.32682973,0.30592984,0.32363102,0.35881633,0.3455178,0.2957886,0.30151483
..\file-birdsong\songs\songs\xc99529.flac,0.19367655721362978,2621.7921410649906,4690.382287166959,-347.04544,98.41034,-11.553791,24.254234,-26.404808,3.180081,-6.4630585,-2.3869753,-9.718853,0.52140945,-1.7995852,-2.5952845,-1.8009123,0.5158924,0.5484867,0.5168726,0.5269165,0.541728,0.549345,0.5505331,0.56296635,0.5601545,0.5468396,0.51615894,0.49519
