duongDan,zcrMean,specCenMean,specRolloffMean,mfcc_0_Mean,mfcc_1_Mean,mfcc_2_Mean,mfcc_3_Mean,mfcc_4_Mean,mfcc_5_Mean,mfcc_6_Mean,mfcc_7_Mean,mfcc_8_Mean,mfcc_9_Mean,mfcc_10_Mean,mfcc_11_Mean,mfcc_12_Mean,chroma_0_Mean,chroma_1_Mean,chroma_2_Mean,chroma_3_Mean,chroma_4_Mean,chroma_5_Mean,chroma_6_Mean,chroma_7_Mean,chroma_8_Mean,chroma_9_Mean,chroma_10_Mean,chroma_11_Mean
..\file-birdsong\songs\songs\464175-0.wav,0.3345477764423077,4002.2101947627834,5424.2966871995195,-400.02765,-71.55757,-85.586685,39.62044,-10.277665,-4.5945964,-0.8748313,26.139235,-6.2491302,-1.0977848,-2.937482,-2.1476524,-3.1790857,0.15033488,0.27269855,0.3249356,0.2700583,0.1743206,0.20377843,0.49154574,0.3563951,0.26948854,0.28795227,0.24996237,0.19314612
..\file-birdsong\songs\songs\466697-0.wav,0.220458984375,2751.0836861347584,4227.713153545673,-64.06322,62.7651,-62.734364,36.41277,8.275443,-6.307865,-19.013292,-1.1812127,-3.437549,2.2091696,-12.32784,4.7865763,-11.202849,0.38603613,0.42176777,0.45033827,0.2477404,0.36811602,0.38645604,0.29568654,0.31118292,0.3920505,0.4242394,0.43156952,0.39628866
..\file-birdsong\songs\songs\467213-0.wav,0.2708909254807692,3833.6706972062625,6537.3976487379805,-256.25107,-178.68144,-153.5118,11.661141,62.321815,9.961026,-5.7035036,10.265689,-9.81094,-10.794113,-5.318276,4.0672193,1.5668478,0.36129004,0.36620083,0.31085545,0.26515195,0.3740764,0.72152156,0.49861673,0.26614892,0.21001892,0.22466055,0.339132,0.3600632
..\file-birdsong\songs\songs\468209-0.wav,0.1857421875,2439.4996938031004,3767.7308067908652,-85.47979,95.068375,-43.58196,34.40315,4.353926,-8.35622,7.698919,15.269913,-3.4430106,2.9968915,3.0884929,2.066176,-12.110024,0.35587642,0.31823394,0.3316644,0.4504904,0.51136655,0.6965502,0.6614145,0.33517465,0.3490437,0.39752483,0.44471988,0.37862307
..\file-birdsong\songs\songs\468216-0.wav,0.33516376201923076,4132.242082138555,5789.20166015625,-256.79495,19.559488,-7.5005517,37.890984,-41.582188,36.59562,12.184764,-3.665769,23.363976,-6.974884,6.0727687,10.515032,-2.871633,0.44877657,0.49893165,0.6148527,0.32433805,0.2758686,0.22681272,0.28458878,0.17672294,0.10425541,0.11556331,0.12999614,0.20490755
..\file-birdsong\songs\songs\468991-0.wav,0.1881798377403846,2419.8655457542645,3589.4193209134614,-267.52463,93.47956,-42.443382,27.017223,-35.4007,-48.2042,9.958581,-1.9252195,-39.52863,-15.274178,-8.6885195,-3.3826005,-20.124554,0.33103558,0.35543826,0.4375844,0.42126068,0.4447283,0.46491715,0.43991396,0.47412682,0.4245833,0.41343403,0.42680475,0.33921042
..\file-birdsong\songs\songs\469007-0.wav,0.2746619591346154,3085.3460721496162,4825.259540264423,-277.10385,96.32183,12.861375,4.200433,-68.4834,-11.233699,-2.861696,-9.991873,-33.10479,-4.2571077,-11.409651,-4.229507,-4.965903,0.3567,0.3239276,0.3887706,0.4420238,0.3110943,0.25482407,0.2880725,0.32969004,0.42427582,0.41727322,0.61752486,0.5077404
..\file-birdsong\songs\songs\469010-0.wav,0.24850135216346153,3074.551944238499,4697.965181790865,-190.65211,87.84545,3.143412,20.69377,-51.275856,-20.894794,4.645266,-7.4640837,-47.19797,0.5481673,-13.104586,-9.851502,-9.8678465,0.25641865,0.22566025,0.24617001,0.28602213,0.26873916,0.3716127,0.52459735,0.53516203,0.519022,0.5097481,0.40029368,0.301916
..\file-birdsong\songs\songs\469351-0.wav,0.29083533653846155,3742.9315228140536,5483.43017578125,-214.61276,-41.031693,-86.92883,21.14497,-3.2933657,-22.181074,4.4652643,15.783583,-10.735393,10.807522,4.3152814,0.5328975,3.510121,0.36781335,0.27441907,0.22447427,0.35852832,0.4195827,0.5384407,0.5114447,0.50998724,0.49393228,0.42388773,0.3510738,0.3509189
..\file-birdsong\songs\songs\469588-0.wav,0.2544658954326923,3247.860638530725,5154.469088040865,-206.06424,16.43146,-67.20886,26.544395,21.678463,-35.08792,-20.54448,10.436165,6.849101,5.867727,-20.564745,12.189812,-4.730592,0.3512062,0.369622,0.46740437,0.4695297,0.61653876,0.18973567,0.10412932,0.18117034,0.23297594,0.25419077,0.28612068,0.3307285
..\file-birdsong\songs\songs\469605-0.wav,0.21607947716346154,2482.537652395189,3286.2152569110576,-244.73666,82.09283,-106.828415,33.536373,-27.871237,-40.301003,-18.607841,-2.2065623,-21.110432,-15.556027,1.900558,-10.182523,-1.2923213,0.3077562,0.25908658,0.25968605,0.3995446,0.3418838,0.3953848,0.4119895,0.317762,0.24138692,0.15591249,0.22235005,0.26595798
..\file-birdsong\songs\songs\469877-0.wav,0.42967247596153846,5005.517317545212,6722.997295673077,-217.80795,-43.80499,-29.285055,2.9950097,-62.34876,-2.855756,-11.325699,8.9165,5.655319,6.369349,6.865454,15.518589,7.428378,0.39381686,0.4730497,0.464613,0.33827767,0.3178812,0.27937642,0.30377674,0.22176085,0.19753957,0.15170729,0.17448343,0.3266239
..\file-birdsong\songs\songs\469896-0.wav,0.38741736778846153,4265.553931239453,5346.197415865385,-139.2234,9.432591,-47.012142,13.801666,-58.19287,2.5211327,-18.248508,0.13284771,2.3645682,-25.432102,24.160133,-15.647818,-3.498606,0.07709946,0.16560435,0.37012318,0.5480802,0.594838,0.5715404,0.49667817,0.25624916,0.10500678,0.06985184,0.06237484,0.057458766
..\file-birdsong\songs\songs\470299-0.wav,0.2796799879807692,3318.0089443819506,4244.774076021635,-216.66899,5.1046033,-86.29936,40.35722,-23.966246,-32.93771,1.734456,-12.41428,-17.77711,3.214262,-16.517298,4.1766453,-12.059656,0.41159943,0.3257523,0.13959166,0.26521134,0.21295385,0.25311768,0.47534552,0.4405445,0.16517733,0.17383058,0.27117285,0.37363937
..\file-birdsong\songs\songs\470300-0.wav,0.21366436298076924,3048.709522848265,5032.061110276442,-192.68735,38.32415,-68.904465,2.8786557,-7.329649,-31.862413,-13.657764,8.147317,-13.302984,-6.668614,2.71745,-1.1358274,-10.269438,0.41005993,0.41788003,0.47392246,0.5760501,0.64663476,0.6373606,0.53144735,0.42180166,0.37716788,0.3725321,0.34582895,0.34852043
..\file-birdsong\songs\songs\470301-0.wav,0.3,3976.37360974093,5658.594501201923,-335.64572,-92.00315,-101.3561,11.448571,-1.3276876,1.7973855,10.909388,7.5403423,2.237079,4.1064334,-9.140391,2.053182,-0.23053993,0.2839248,0.3790731,0.47262135,0.458623,0.29055533,0.2625799,0.36030972,0.39428726,0.39141414,0.36256906,0.4036076,0.32505444
..\file-birdsong\songs\songs\473437-0.wav,0.13273362379807693,2556.5734712783014,4500.770733173077,-315.1733,64.12887,-5.913824,21.267513,-28.176943,0.3339642,-6.997701,-20.278635,-27.30527,-28.154375,-25.376429,-16.646294,-13.756709,0.15809526,0.050941713,0.08521639,0.27769732,0.8159704,0.71961033,0.103567146,0.06556585,0.13273907,0.17672196,0.25468844,0.3561259
..\file-birdsong\songs\songs\473447-0.wav,0.31246619591346153,3704.977219895931,5522.935321514423,-321.86023,35.460583,-26.88335,24.406006,-40.305508,-3.159442,-3.7540908,5.7925463,-32.3317,-18.19472,-13.474407,-22.536198,3.825623,0.2884382,0.25980705,0.23213772,0.26443946,0.26504102,0.42828846,0.4586372,0.34048122,0.3032099,0.34169972,0.5532397,0.39841938
..\file-birdsong\songs\songs\473452-0.wav,0.24954927884615385,3500.1170689668484,5812.88818359375,-460.84036,19.242058,-7.6455164,31.555935,-27.993479,1.9071386,-5.9046984,-9.579621,-17.382208,-30.005781,-13.146347,-7.9945745,-7.6710806,0.31291524,0.4862245,0.5194126,0.5179806,0.5240495,0.53556436,0.480731,0.40109637,0.38410923,0.27313325,0.2763367,0.27829853
..\file-birdsong\songs\songs\474134-0.wav,0.30923227163461536,3677.7005096014373,4691.00830078125,-242.882,-24.414614,-66.65608,43.808952,-32.820694,-13.845463,-27.629612,-19.815302,0.40071598,-14.2773905,-32.10095,0.7443895,-12.444815,0.37821206,0.29455942,0.3918801,0.3591128,0.1432346,0.08137744,0.07761901,0.18046151,0.29515696,0.22182211,0.36745238,0.49145815
..\file-birdsong\songs\songs\474152-0.wav,0.38757887620192305,4623.091895963241,6145.576171875,-175.79675,-54.81781,-56.48532,25.953297,-33.25338,4.2745194,-17.745756,-16.73738,-24.801058,-11.70948,-11.7535925,-2.6736052,-15.253656,0.3342046,0.3401983,0.32450715,0.3006334,0.3200143,0.36928204,0.49935508,0.41282362,0.33052206,0.31740856,0.31093168,0.35532966
..\file-birdsong\songs\songs\474153-0.wav,0.38504732572115385,4746.545690849437,6463.853478064904,-224.27951,-45.230145,-61.717194,1.2817456,-36.19828,0.28656417,-16.245222,-12.874538,-20.837017,-4.0942154,-2.2573009,-7.79766,-6.621602,0.25626525,0.22954832,0.3035622,0.42682025,0.4913262,0.43923402,0.3434821,0.41327348,0.3914567,0.39650616,0.27098274,0.21289931
..\file-birdsong\songs\songs\474154-0.wav,0.4013897235576923,4882.002787355231,6709.497633713942,-201.42554,-57.54929,-54.702644,6.4986525,-40.85109,7.635589,-5.0493417,-14.767088,-21.722998,-4.621517,-18.201784,-6.818378,-11.300331,0.42363083,0.39423007,0.36203977,0.3060032,0.2928057,0.24557798,0.2699425,0.35321915,0.33575976,0.3827664,0.37589875,0.38509274
..\file-birdsong\songs\songs\477371-0.wav,0.25711763822115385,3427.877002486438,5730.399451622596,-113.9439,48.914,-20.775015,27.584606,0.105644785,-29.132235,3.692583,0.6245474,-13.797083,-5.3766913,-8.472938,-0.6311859,-5.334185,0.24858272,0.33805835,0.48574743,0.4600832,0.22074795,0.17071162,0.17644985,0.2684313,0.3360229,0.29958302,0.3297705,0.31041563
..\file-birdsong\songs\songs\477595-0.wav,0.13014573317307693,2084.2896757408116,3585.195500300481,-220.63428,84.06083,-9.34912,86.916534,17.082739,-1.2313697,16.804382,34.323303,-3.4353004,0.21800959,2.0590117,5.145336,-1.5206773,0.5554587,0.53954273,0.40001854,0.35285214,0.38222227,0.42668378,0.50399053,0.33439475,0.32750443,0.3698503,0.36170757,0.41341695
..\file-birdsong\songs\songs\477785-0.wav,0.030446213942307693,1652.8358029813917,4472.611929086538,-253.8418,66.079636,27.514988,46.399437,24.2388,21.520967,10.720496,21.925161,15.029263,20.330904,11.090505,14.3079,4.8989525,0.71491057,0.6500899,0.6321157,0.6636242,0.6861077,0.71715134,0.6810561,0.7039434,0.7224495,0.72127026,0.66469485,0.67253864
..\file-birdsong\songs\songs\479482-0.wav,0.24646559495192308,3066.8190517564644,4300.511944110577,-164.65234,34.854107,-52.212215,53.850983,-7.588564,-30.329315,-13.264046,18.293488,-22.798767,-21.048634,-6.695767,-5.5973945,-14.133442,0.24201243,0.32752118,0.46291253,0.37562603,0.38101685,0.4227664,0.42397216,0.33440918,0.23202044,0.19927686,0.12202911,0.14714688
..\file-birdsong\songs\songs\480032-0.wav,0.27164212740384613,3392.541846845299,4795.030235877404,-325.60596,18.049414,-46.808292,45.092724,-16.638397,-18.3263,-17.95889,-11.183617,-32.8984,-8.966566,-28.14802,-22.955673,-6.7844434,0.46064678,0.3281082,0.20496006,0.22029914,0.22360317,0.23917541,0.30260623,0.36873907,0.5954113,0.45645964,0.42421767,0.49122533
..\file-birdsong\songs\songs\480035-0.wav,0.30499549278846155,3749.6452279069576,5099.807880108173,-420.71094,17.586885,-21.618393,41.141544,-44.220665,-5.1415243,-18.27538,-15.66117,-17.04331,-14.61928,-8.514686,-27.081738,-1.6318662,0.24962854,0.30051285,0.35024336,0.29337373,0.33732733,0.4451822,0.35579526,0.39903772,0.44136745,0.40132284,0.35016155,0.29084247
..\file-birdsong\songs\songs\480068-0.wav,0.2795673076923077,3411.9454479156807,4794.533315805288,-245.66833,14.045159,-44.29474,58.36572,-68.49052,-16.088871,-26.982674,-18.889795,-35.366634,-28.478014,-23.717686,-28.683672,-14.926144,0.37317395,0.38088575,0.29205975,0.27879784,0.37793863,0.4298259,0.29435426,0.21355732,0.23058972,0.26682553,0.42121682,0.3578916
..\file-birdsong\songs\songs\480224-0.wav,0.06321739783653846,1872.0854539412346,4199.140249399038,-191.47699,83.20695,-6.4472847,48.5942,5.7432137,26.548115,25.136036,14.343108,15.260417,10.891177,6.812029,13.190291,-0.20691508,0.67007256,0.6433607,0.57769793,0.58475655,0.5776105,0.5693028,0.63565475,0.5721372,0.57887536,0.6015217,0.59791183,0.64420533
..\file-birdsong\songs\songs\481115-0.wav,0.21388596754807693,3770.4367686210694,7908.897047776442,-72.54895,52.834732,-0.57396555,-26.297108,-8.164955,9.404831,-18.411755,-20.405672,1.5050223,-3.2759202,-27.131927,-21.006561,-12.80308,0.688866,0.29024553,0.17720996,0.16059509,0.16390432,0.22478294,0.27498123,0.2717042,0.4064372,0.5863152,0.4870826,0.59161687
..\file-birdsong\songs\songs\481116-0.wav,0.2663611778846154,4007.079939480081,7396.406813401442,-115.4748,35.85598,24.603,8.674644,-33.017197,2.05338,-20.094908,-20.699392,-16.07818,-15.596377,-19.594528,-11.83109,-14.215278,0.51199764,0.5283752,0.47022253,0.46506912,0.6303016,0.68491167,0.49278048,0.42225072,0.39412966,0.45585164,0.5265879,0.51883376
..\file-birdsong\songs\songs\481117-0.wav,0.32222806490384615,4080.2215512978064,7260.333533653846,-68.476204,36.451374,-3.0155575,3.7499032,-28.570913,-13.713574,-15.204985,-8.504069,-16.281124,-19.057875,-16.796494,-11.519954,-14.610261,0.43100855,0.46673325,0.48719645,0.467482,0.518937,0.63304216,0.5750555,0.4877775,0.45786592,0.43388066,0.46304223,0.41332
..\file-birdsong\songs\songs\481124-0.wav,0.19692007211538462,3423.8380318408763,6645.809044471154,-253.41382,50.480057,14.5367,10.102723,-45.09525,-12.340202,-17.080587,-27.910532,-22.876562,-14.6918545,-24.138905,-9.585857,-17.628145,0.43870854,0.43533024,0.56842875,0.5988238,0.5262719,0.4877933,0.4659635,0.48318437,0.53652704,0.59808326,0.5281318,0.47883967
..\file-birdsong\songs\songs\482567-0.wav,0.38290264423076925,4456.375107675107,5439.3699293870195,-287.12817,-65.05593,-26.189419,94.7862,-49.702187,7.8179994,7.538212,4.841363,-8.006831,8.24897,-0.88557225,5.637991,0.60841155,0.17976363,0.17664687,0.27644706,0.27772987,0.21608016,0.21099827,0.25838947,0.37246457,0.44706726,0.5111799,0.44365725,0.30875972
..\file-birdsong\songs\songs\483220-0.wav,0.2114783653846154,3303.956403257558,6709.414813701923,-122.55742,75.55793,28.48774,17.984262,-21.074022,26.33262,-6.4826427,27.976543,-8.423166,25.616972,-4.9282246,14.100487,8.84745,0.5941337,0.56210315,0.5935465,0.49584913,0.3733603,0.3966265,0.41745862,0.3947259,0.45651633,0.43226004,0.510604,0.5208229
..\file-birdsong\songs\songs\483578-0.wav,0.2571814903846154,3232.560944018695,4550.0486403245195,-186.75536,12.493898,-64.72067,48.37889,0.54476696,-35.764183,-19.86561,8.340259,-27.959667,-8.803452,-2.2185652,-7.2688394,-12.284309,0.16245499,0.18025027,0.24080774,0.46582437,0.5875464,0.47562492,0.3433367,0.41301072,0.29849163,0.1464752,0.1386422,0.20377487
..\file-birdsong\songs\songs\483628-0.wav,0.29302884615384617,3851.6596489294657,5890.076434795673,-221.41678,-54.245586,-98.98578,-2.4929025,-23.151602,-25.88105,-3.6455762,4.1809072,-8.275915,-1.2464968,2.6199684,1.6280777,-3.2594993,0.38687205,0.3812757,0.41208866,0.5313823,0.4324738,0.50719196,0.54604787,0.47072533,0.420772,0.3565271,0.3554108,0.37752792
..\file-birdsong\songs\songs\483878-0.wav,0.19227388822115385,2994.9273178128115,4722.562725360577,-273.27054,-42.37878,-133.2639,-37.096386,-2.876488,-18.845474,-19.505701,11.739241,9.570059,7.5109515,-1.7786789,8.758299,0.18156421,0.30879313,0.30027717,0.27471966,0.2903636,0.2413868,0.21781336,0.23356935,0.24512015,0.2504093,0.32805666,0.2816438,0.24366835
..\file-birdsong\songs\songs\483881-0.wav,0.3685997596153846,4390.238320826798,5520.947641225962,-327.27728,-80.64221,-89.31326,15.201259,-27.008379,10.942546,4.619629,7.7911353,-2.6113424,7.1556444,1.9922134,0.4895341,-2.7323241,0.25844395,0.18386666,0.3222467,0.29616103,0.24249128,0.26412985,0.24479385,0.20283067,0.2870839,0.28818932,0.19104272,0.39103594
..\file-birdsong\songs\songs\483884-0.wav,0.39248798076923075,4597.823194584931,5993.76708984375,-321.09955,-102.90703,-100.5369,7.7512937,-17.331095,10.64191,7.4083834,11.5261345,-1.6500589,10.085766,-5.5879183,-2.9106944,-3.351121,0.26252115,0.18381488,0.1597521,0.26049516,0.35757428,0.26360264,0.15043706,0.14379801,0.35741663,0.5838857,0.33965448,0.19713491
..\file-birdsong\songs\songs\483978-0.wav,0.3889460637019231,4505.010475764022,6055.633638822115,-275.29764,-33.187843,-30.46099,48.055267,-29.060276,11.115456,-6.1325226,-5.3202157,0.77519274,9.457807,-9.076545,1.4639477,6.057835,0.32625064,0.37433505,0.23040009,0.23555832,0.22277029,0.17703377,0.22522959,0.2796037,0.30189255,0.35066307,0.38734853,0.43346027
..\file-birdsong\songs\songs\486798-0.wav,0.4253155048076923,4897.050197947688,7249.649752103365,-323.90613,-22.856123,-2.6029496,29.932919,-26.034292,12.681074,-4.003236,-0.22684537,-0.017919805,0.3682906,-0.40693069,-1.0207198,-3.3717043,0.4903695,0.4708792,0.41939628,0.46062967,0.46372536,0.44617054,0.43837845,0.46054462,0.5075787,0.46754712,0.42283288,0.42770633
..\file-birdsong\songs\songs\489169-0.wav,0.27399338942307694,3564.6650887706614,5270.085824819712,-209.58302,12.624136,-28.269201,74.79812,-3.7126243,1.5777606,-11.233483,-2.437884,-21.353125,1.4806904,-2.8062837,6.731414,7.7773232,0.31167117,0.3444422,0.30243,0.26617846,0.19199413,0.22812948,0.33986646,0.3026397,0.2456995,0.24896489,0.2966895,0.38888815
..\file-birdsong\songs\songs\489171-0.wav,0.3337101862980769,4000.933783942934,5428.189227764423,-244.75754,-41.484142,-40.763573,71.32628,-0.5241206,-13.282535,-2.197938,0.3120123,-21.712717,11.739972,-4.4658318,1.088398,0.26730844,0.3363539,0.29751226,0.22655885,0.16178618,0.17732316,0.27311987,0.3306884,0.3478312,0.4431805,0.4840295,0.38141185,0.34026697
..\file-birdsong\songs\songs\489315-0.wav,0.17432016225961539,2437.875810327792,4079.9622521033652,-164.23148,86.636826,-50.679287,20.157385,10.80293,-1.9478338,-17.992619,-5.9506154,-7.137742,7.1202497,-11.482331,-3.9659607,-5.386281,0.4656523,0.3820257,0.32531506,0.28612623,0.332685,0.4479525,0.49565753,0.46517217,0.4528568,0.5554984,0.59512776,0.6255525
..\file-birdsong\songs\songs\490351-0.wav,0.5012770432692307,5496.586882556078,7918.172889122596,-184.32416,-106.86703,-95.350525,-75.78395,-42.83554,22.95512,5.5905995,25.413923,2.7487576,20.59054,-14.8279505,13.056428,-10.536699,0.43309644,0.32342872,0.18295012,0.14877926,0.21758963,0.34044123,0.1675819,0.1648427,0.36886424,0.30153367,0.52861655,0.6017593
..\file-birdsong\songs\songs\490595-0.wav,0.3585712139423077,4011.386615843915,5095.252779447115,-178.45561,10.195305,-51.629734,54.228542,-34.1272,-1.7944205,11.19563,3.069038,-16.604181,13.225655,-12.248428,-5.981148,-8.476292,0.2970997,0.20157029,0.24401231,0.20297301,0.2143635,0.2895714,0.4447497,0.44218796,0.39683905,0.3925347,0.4605378,0.45913905
..\file-birdsong\songs\songs\490932-0.wav,0.20394381009615384,3327.153745387932,6074.268141526442,-278.86606,29.887146,11.901401,57.462597,1.4825356,25.428741,7.8483157,7.9233766,14.860238,4.286435,-2.6053994,7.2459474,-2.7421014,0.5475526,0.59493434,0.5927179,0.6672401,0.6711071,0.5273889,0.38510317,0.3672444,0.39324185,0.4392538,0.49836808,0.53154
..\file-birdsong\songs\songs\492745-0.wav,0.4440392127403846,4977.441561645836,6864.7023362379805,-424.88794,-146.66162,-79.97646,53.125553,-13.016607,35.249954,-8.759925,-5.9278417,-11.7393875,4.403051,1.678596,3.204399,-1.2623675,0.5335773,0.48701608,0.58177775,0.64330184,0.66750103,0.67842615,0.6673208,0.6047403,0.5516351,0.5943823,0.6648396,0.70893943
..\file-birdsong\songs\songs\492783-0.wav,0.4090144230769231,4787.758105241525,6493.006122295673,-468.52005,-122.04467,-69.568306,47.116272,-13.250612,34.898598,-9.395052,-11.397962,-5.306573,7.699877,-2.1473954,-0.1339224,5.1084704,0.46676648,0.41723493,0.4364253,0.5161601,0.45356587,0.4126779,0.46488056,0.5974941,0.5044176,0.50118667,0.51108265,0.52145326
..\file-birdsong\songs\songs\493448-0.wav,0.40453350360576923,4533.448300190535,7279.879056490385,-121.76138,26.207458,11.867653,27.619097,9.642845,4.8317986,9.698676,3.5333397,-8.547695,1.5014474,-2.4350445,-13.879768,5.5743923,0.120099686,0.1656688,0.13069794,0.122389674,0.13042529,0.17281127,0.280026,0.4351686,0.36648434,0.36037642,0.3948348,0.1938028
..\file-birdsong\songs\songs\493957-0.wav,0.2734938401442308,3369.5448440617333,4632.040452223558,-232.14183,73.812965,-4.8593187,-12.986852,-72.60932,10.653614,-13.221633,-14.316509,-0.20875174,1.0402278,-4.278825,-3.0645986,-15.962853,0.36737674,0.38086742,0.38131484,0.36565176,0.3748968,0.35479385,0.30563334,0.2980141,0.32740498,0.44670805,0.41037646,0.31133908
..\file-birdsong\songs\songs\494030-0.wav,0.2751164362980769,3571.25539908613,5388.7669020432695,-93.42847,58.136593,29.10518,55.268013,-39.611103,25.026402,24.685835,1.2519535,28.050858,-18.952915,33.189568,-7.511227,-2.9591565,0.1807391,0.19419146,0.3518851,0.62990445,0.67316157,0.520958,0.4320039,0.2823528,0.22972812,0.2535749,0.28721994,0.26745296
..\file-birdsong\songs\songs\498647-0.wav,0.33232421875,3900.1263383613773,4970.277381310096,-294.61856,-78.32327,-115.86851,18.008286,-69.20934,-9.722812,2.913904,16.65756,1.1763544,11.141675,6.7233076,0.17610908,-5.1030264,0.1988705,0.19595228,0.22012983,0.2532424,0.27908856,0.26530555,0.29886484,0.44391692,0.34046233,0.29423344,0.2850272,0.34932426
..\file-birdsong\songs\songs\498768-0.wav,0.38648212139423077,4487.495026382607,6159.407113882212,-239.69702,-52.171215,-65.71435,-14.069805,-52.86791,-26.6942,-45.44646,4.1707916,3.3823664,-20.204432,25.55335,-4.4198,-4.5817018,0.12714432,0.072339416,0.085544966,0.22938816,0.55072004,0.66424346,0.5660142,0.17798579,0.12206405,0.14513984,0.123193376,0.12509638
..\file-birdsong\songs\songs\498947-0.wav,0.3291053185096154,3733.9379406427784,4985.681903545673,-256.46274,-11.0306225,-73.26288,41.10546,-55.45224,-27.495407,-32.01324,-3.203489,-17.077787,-23.885918,-2.0971515,-5.066492,-10.844719,0.17032471,0.16332847,0.21919651,0.3724231,0.34642628,0.34677756,0.39873704,0.31644118,0.117362686,0.10192511,0.30317837,0.35577267
..\file-birdsong\songs\songs\499260-0.wav,0.11113656850961538,1640.552065131746,3083.223407451923,-60.346233,154.53188,-38.521973,30.847656,-10.214594,-0.024934739,-4.0213227,2.9066186,-11.38448,-2.995976,-11.093918,0.87136334,-6.627525,0.38154605,0.30495933,0.25886568,0.24707407,0.24278179,0.22732073,0.216508,0.37624612,0.7050174,0.4533,0.759164,0.43085632
..\file-birdsong\songs\songs\500148-0.wav,0.24534254807692307,2992.03788797586,4335.544809194712,-261.29382,43.750843,-66.64223,34.09413,-17.67778,-30.694258,-24.376854,2.8426487,-17.305075,-30.807922,-10.09579,-8.574324,-16.556404,0.35326234,0.35077733,0.35952765,0.45444253,0.47423938,0.46899453,0.33651194,0.24157763,0.22606656,0.2351451,0.2353649,0.26753998
..\file-birdsong\songs\songs\500924-0.wav,0.34484675480769234,3943.174379399648,5876.079852764423,-178.72627,-70.52843,-140.38257,-82.23119,-78.882965,28.298056,6.686176,17.491476,18.258863,7.4726763,8.476791,0.19741023,0.12730056,0.40149748,0.43719319,0.43790796,0.43506438,0.48658356,0.5997659,0.4104177,0.2237687,0.19919196,0.20146213,0.2561405,0.3284378
..\file-birdsong\songs\songs\501838-0.wav,0.4157527043269231,4764.988201134622,6530.357947716346,-339.41455,-55.202415,-9.819143,56.170845,-46.503117,10.515175,8.549164,-5.0800185,-2.0057812,-0.7363011,-1.0054641,2.7667732,-5.8513813,0.569374,0.5310072,0.49826917,0.62078184,0.5702979,0.44932434,0.3781269,0.252103,0.24143243,0.42032686,0.54444873,0.49313983
..\file-birdsong\songs\songs\501839-0.wav,0.4591496394230769,5115.361566069668,7491.732647235577,-357.52783,-61.308014,-16.306328,38.815826,-19.17966,4.4385567,-0.17685172,-3.8950646,6.5221467,-0.32807148,-4.517133,5.4318123,-3.5149007,0.62446237,0.60332763,0.59344095,0.5089803,0.4108229,0.48540384,0.4979291,0.46542954,0.43920684,0.44809055,0.41889012,0.51028776
..\file-birdsong\songs\songs\503419-0.wav,0.21497521033653846,3212.921997810589,5153.309607872596,-183.91182,-58.891563,-154.21523,-54.14982,-27.924316,-12.383826,-2.6989815,8.100683,-6.9241815,6.836639,-5.1936555,-1.2298923,-10.123565,0.23086585,0.3170557,0.3811062,0.34443364,0.30138752,0.34300736,0.4151582,0.40676996,0.49564415,0.308045,0.25920317,0.25348696
..\file-birdsong\songs\songs\511296-0.wav,0.4094463641826923,4790.0389318643665,5980.184607872596,-205.98218,-18.860474,1.7229652,55.328915,-47.7132,25.459766,-2.466201,-0.8426986,-4.992106,8.815159,-9.4828,5.5887384,-0.86966836,0.3151868,0.24658948,0.28146756,0.3199273,0.26209673,0.2243537,0.2437414,0.28416538,0.32772684,0.3423021,0.5289469,0.43510914
..\file-birdsong\songs\songs\513350-0.wav,0.2524151141826923,3175.0246464738248,5463.139272836538,-107.045555,54.60543,-36.33268,41.565098,-14.756539,18.550955,-1.2035763,15.2011795,-23.003464,-2.6304245,0.6312064,7.8284287,-2.2699177,0.34973246,0.44018674,0.4356887,0.361089,0.43355283,0.36474758,0.4503034,0.4463523,0.38628945,0.23408124,0.15237339,0.18228893
..\file-birdsong\songs\songs\52363-0.wav,0.2679574819711538,3208.1078944158535,4270.0341796875,-248.18005,34.151917,-56.896137,32.981842,-14.897382,-28.20792,1.9727992,-2.929733,-12.552679,3.4219844,0.37341943,8.980801,-9.9596815,0.28159744,0.29125494,0.3493738,0.3081104,0.23480044,0.36062688,0.3051645,0.204515,0.2806311,0.29637995,0.22246245,0.24096265
..\file-birdsong\songs\songs\530427-0.wav,0.25646033653846156,3263.6120840714857,4793.705115685096,-277.01114,-1.4780152,-107.53215,-3.5598898,-14.821204,-14.32686,-12.9314165,13.352117,-11.588437,-2.71726,5.817255,-7.681877,-1.6232332,0.37285292,0.43960193,0.53726214,0.41939068,0.63227737,0.6370683,0.39853424,0.37390918,0.3588423,0.343806,0.32229465,0.33823276
..\file-birdsong\songs\songs\534181-0.wav,0.2654897836538462,3405.240540608715,4945.762657752404,-269.41534,-30.428253,-88.73371,30.75536,9.827848,-11.629911,-10.9386425,-12.964939,1.0736091,10.270333,-3.137011,1.1045843,-8.962409,0.23305999,0.35436127,0.28925368,0.26840487,0.47710294,0.26803708,0.21355452,0.2987837,0.4240845,0.42590326,0.4867118,0.41709146
..\file-birdsong\songs\songs\534770-0.wav,0.3647986778846154,4475.6790873099335,7582.172100360577,-285.93466,-17.909895,-38.711155,-0.3485929,-25.027288,-2.322629,-6.360933,-9.081101,-14.620555,-9.133995,-1.8213842,0.63700444,-11.35762,0.7099362,0.7110553,0.7326892,0.699859,0.65429187,0.61353314,0.57791865,0.5696019,0.58465606,0.57443464,0.6198249,0.67509884
..\file-birdsong\songs\songs\536012-0.wav,0.014100060096153846,882.7945606394746,1650.1059194711538,-316.58566,127.0517,27.296429,38.383324,16.605965,24.977844,15.9716425,21.928629,10.378565,15.49336,5.397232,8.477791,5.177471,0.73097897,0.72975934,0.6518115,0.60205585,0.60123944,0.5730987,0.57265246,0.607837,0.6420207,0.6338204,0.6661178,0.721154
..\file-birdsong\songs\songs\537326-0.wav,0.26973783052884615,3451.1192255169194,4598.167067307692,-353.45444,-56.252506,-82.346436,55.459827,23.638643,-45.10523,-3.9625902,25.972095,-11.659441,-13.136516,7.3353176,2.2625113,-7.485186,0.13873681,0.17565034,0.28104368,0.4872588,0.6780937,0.4211172,0.35900497,0.30455747,0.27448726,0.19313481,0.09414755,0.09545608
..\file-birdsong\songs\songs\537553-0.wav,0.3821063701923077,4343.395250168836,7524.6950120192305,-72.95827,31.538687,-11.496439,36.192745,-18.662968,-1.6090488,-11.552691,17.986446,-27.77862,21.439945,-17.924952,15.217216,-13.314831,0.31050095,0.2873006,0.28442234,0.22664978,0.21181236,0.25573784,0.40104997,0.39227322,0.43817097,0.40836695,0.51818126,0.28232005
..\file-birdsong\songs\songs\537579-0.wav,0.1453876201923077,2365.0825572747362,3794.895770733173,-182.4144,53.457035,-23.592833,53.903072,33.799294,4.5074716,-7.538874,15.416945,26.909044,8.9560585,-14.449844,13.704638,15.355352,0.68611234,0.4774267,0.18911535,0.18287888,0.18241398,0.17031656,0.18392749,0.1778961,0.14428945,0.14387581,0.15817168,0.28067252
..\file-birdsong\songs\songs\538122-0.wav,0.20524338942307693,2976.30759436912,4440.809044471154,-186.52515,12.780089,-63.045612,20.773283,6.7584014,-20.449526,-29.518795,-3.2204056,11.472703,-4.4071503,-26.241884,3.87688,6.7578144,0.7070358,0.34215158,0.11116319,0.1270468,0.12547804,0.11079809,0.13531774,0.11130226,0.08566537,0.09263402,0.12093458,0.3261581
..\file-birdsong\songs\songs\538537-0.wav,0.259033203125,3281.1521555679324,4443.790564903846,-254.51001,-33.3712,-86.61281,44.077366,32.229774,-37.67034,-13.86246,21.111782,-1.1066848,-12.326957,-1.3389885,3.0101323,-4.330826,0.3829962,0.48116082,0.4948682,0.48396227,0.38261965,0.31046405,0.2117477,0.32082418,0.35005236,0.19390845,0.18412915,0.23341945
..\file-birdsong\songs\songs\538843-0.wav,0.2708946814903846,3509.2390118511807,4707.572303185096,-281.3626,-83.527794,-130.38135,11.911569,-20.389874,-28.88141,4.7813807,16.878042,-7.233399,0.5549,0.578975,12.461394,-0.8674738,0.42704394,0.43067685,0.2502817,0.30201867,0.27114362,0.32128254,0.37253666,0.2547004,0.21445344,0.18914346,0.18535791,0.25926873
..\file-birdsong\songs\songs\539392-0.wav,0.046029897836538464,1023.9163351638292,1759.0142352764424,-156.82993,170.61635,20.306362,27.87462,-13.82363,12.996539,8.852116,6.90448,4.904352,18.862888,6.2201257,10.45158,12.996115,0.7502631,0.6636361,0.6443204,0.73725533,0.6456032,0.6092714,0.59291154,0.60751617,0.63240445,0.66933024,0.65620583,0.7293754
..\file-birdsong\songs\songs\54018-0.wav,0.3012394831730769,3553.6660894918086,5406.241924579327,-282.67285,-10.812182,-106.38113,31.573172,-55.583435,-10.281071,-34.64528,11.437467,-22.732475,-6.440163,-1.0643928,-8.59825,4.9762273,0.40335885,0.37485456,0.3789914,0.5179419,0.5449575,0.47528484,0.61466914,0.65720236,0.5762203,0.4911581,0.41777697,0.36806908
..\file-birdsong\songs\songs\54019-0.wav,0.2547400841346154,3102.36508597799,5414.772385817308,-89.49904,76.71503,-14.767291,19.566566,-17.461672,-18.19472,-3.811122,13.705632,-17.197296,3.114876,-5.6572013,-0.11826149,-0.36105064,0.27729008,0.3006107,0.32587194,0.37756148,0.38280028,0.34305012,0.25172627,0.28229415,0.38138682,0.5336074,0.23423402,0.25146726
..\file-birdsong\songs\songs\541426-0.wav,0.2977801983173077,3925.8771137940203,5822.578125,-226.87996,-112.4371,-127.45078,3.455185,-17.043795,-18.054417,-11.024529,10.117903,-4.1320105,4.2544813,3.3740501,1.861793,3.1316833,0.2771081,0.3534031,0.23999347,0.2741344,0.24328604,0.24441361,0.3885604,0.50342023,0.29410532,0.22002389,0.2312744,0.20462234
..\file-birdsong\songs\songs\541496-0.wav,0.14613882211538462,2733.7955676639185,4871.390286959135,-374.41763,47.303616,-17.264984,26.841305,30.835522,13.08141,-9.757782,25.638525,25.51197,-2.2579393,5.4828153,12.114527,16.528992,0.6975143,0.43902323,0.412798,0.49023512,0.5412992,0.50243515,0.38880405,0.30496767,0.27161142,0.2710578,0.32687378,0.5411476
..\file-birdsong\songs\songs\542090-0.wav,0.2673377403846154,3848.1916296407053,6200.899939903846,-236.46454,-95.06953,-122.35637,-3.2617598,-3.6959698,-31.514761,-13.410068,3.7870595,-1.7920108,24.50006,-12.206979,0.07476525,0.98547786,0.21621537,0.09459538,0.09462934,0.11390223,0.09198544,0.11129012,0.15887131,0.38302284,0.6495066,0.54620224,0.21013694,0.22438848
..\file-birdsong\songs\songs\542156-0.wav,0.24474534254807692,3258.391933066098,5106.6819411057695,-136.54834,31.881378,-65.19785,19.615068,-21.165035,-17.21743,3.654533,2.188964,-7.084013,-3.9517705,-2.7463725,-1.0386109,-11.945446,0.32758817,0.39714095,0.38726023,0.45768598,0.46516195,0.48141834,0.55832946,0.42936176,0.36587864,0.35545686,0.41110957,0.34330663
..\file-birdsong\songs\songs\544036-0.wav,0.37332857572115385,4390.614237028266,5760.297475961538,-281.23822,-29.616667,-58.109955,19.337376,-44.29266,0.5918269,-1.3976394,-8.795718,-2.5244515,0.19099344,0.50544983,-5.8387012,2.4750216,0.35104203,0.3316979,0.36068103,0.28027272,0.19167916,0.23569573,0.610505,0.3964568,0.2517332,0.29101244,0.30890638,0.38570416
..\file-birdsong\songs\songs\544193-0.wav,0.3229792668269231,3867.9637346620666,5292.033128004808,-278.18842,-105.823975,-139.05415,29.52693,-24.92236,16.844868,-9.562641,7.7376595,6.8971224,6.181424,-4.581896,13.838082,-13.932893,0.43181413,0.41773832,0.36006024,0.376825,0.3771738,0.4128445,0.2964544,0.17338452,0.30282676,0.25306088,0.27280223,0.3362303
..\file-birdsong\songs\songs\544559-0.wav,0.2319110576923077,2825.3870337963385,4261.917818509615,-142.67218,109.78511,15.344401,32.66623,-61.30812,9.7893915,-0.7969323,-2.8315842,-3.3438444,4.518639,-5.6972,6.382087,-7.1724,0.6060501,0.4764254,0.40090832,0.38340372,0.38676226,0.39193875,0.4035773,0.37771097,0.40637878,0.42727384,0.48047805,0.67173815
..\file-birdsong\songs\songs\544966-0.wav,0.20377854567307693,2499.2242994679164,3049.764122596154,-222.6491,64.343994,-63.85392,22.178703,43.754284,-10.085844,-29.642021,-9.81268,-0.21748845,17.217194,-16.318808,-25.569174,-0.48893434,0.2887219,0.059884835,0.07687388,0.17792408,0.072106875,0.039788257,0.15135382,0.4706613,0.30358273,0.22817822,0.3225878,0.30466196
..\file-birdsong\songs\songs\545900-0.wav,0.30841346153846155,3671.1714367303316,4826.5846604567305,-295.7429,-28.16693,-69.78935,55.90683,-11.5705595,-12.796488,-1.5202743,-1.8201749,0.69068605,1.5717261,-10.199866,9.433298,-2.0170934,0.4066849,0.3710493,0.27848426,0.37282905,0.37577724,0.18508595,0.20371749,0.2332845,0.15937671,0.15548818,0.27763432,0.47673875
..\file-birdsong\songs\songs\54652-0.wav,0.28203125,3299.921546859133,3916.806828425481,-266.24356,16.588903,-62.00355,46.025528,6.627439,-49.40267,25.419674,19.379028,-34.347282,27.793623,0.55586785,-18.893183,16.858751,0.13001269,0.16798042,0.11219884,0.06905733,0.14461921,0.2146637,0.21994987,0.34170678,0.49469054,0.46165588,0.33954096,0.11003229
..\file-birdsong\songs\songs\546760-0.wav,0.2728928786057692,3820.708541199732,7209.730506310096,-73.24142,32.28594,-18.244564,16.11536,8.665069,-3.662758,-2.496737,12.448053,-6.377128,-3.2706304,4.3679895,6.6309566,-9.1122675,0.43300915,0.6454211,0.50586396,0.46914643,0.45752478,0.47822183,0.47504076,0.33018836,0.32909822,0.33501136,0.34177354,0.32782707
..\file-birdsong\songs\songs\54725-0.wav,0.3450495793269231,4039.5650225215154,5072.808556189904,-246.5442,-16.155754,-29.612823,80.32495,-28.978767,-21.01297,10.062648,-12.357608,2.6213863,-6.835236,-17.06403,5.224173,-12.125235,0.4102275,0.28200462,0.3238729,0.36868164,0.40279362,0.3587161,0.30684805,0.2360255,0.30794233,0.3965759,0.46302328,0.4322697
..\file-birdsong\songs\songs\548703-0.wav,0.3435509314903846,4234.565152082827,5460.7374924879805,-304.91568,-26.074493,-8.003354,116.129486,-15.493654,49.806236,1.0387019,4.9496584,16.390505,12.688708,1.407059,13.8824,2.9234955,0.5130086,0.6176013,0.3613138,0.3601994,0.20799145,0.15795654,0.10132914,0.21461855,0.3097959,0.21888092,0.23681995,0.28218344
..\file-birdsong\songs\songs\549222-0.wav,0.06996694711538462,2029.862124754531,4692.499060997596,-27.370089,105.81478,-11.833295,33.983482,-11.194731,25.033394,-2.3886354,19.80643,-1.1595008,16.4866,-1.9375066,8.821265,-5.0363674,0.5757501,0.5053714,0.5524448,0.62700284,0.5751442,0.60926515,0.72117126,0.7640349,0.7907108,0.8420593,0.7841298,0.69099146
..\file-birdsong\songs\songs\549591-0.wav,0.40038311298076923,4699.477247206996,5371.871619591346,-340.28766,-82.58202,-61.550816,23.403807,-47.469,8.888861,4.449641,33.74884,-13.826555,10.825159,7.381564,-21.413,5.1961966,0.1067774,0.06125244,0.10732417,0.09313098,0.061836462,0.08643829,0.23924616,0.49341625,0.6001689,0.33715072,0.19635327,0.16171275
..\file-birdsong\songs\songs\551290-0.wav,0.04258563701923077,1754.968226178318,3931.0518704927886,-141.22955,98.46722,-7.644273,20.737452,10.858941,22.926575,15.386515,18.233452,13.543962,15.164048,7.745678,11.081898,3.2620695,0.748414,0.7120732,0.69853735,0.7015075,0.69053155,0.6815606,0.6326186,0.6430458,0.67034525,0.7025998,0.69538456,0.7339941
..\file-birdsong\songs\songs\552447-0.wav,0.09915114182692308,2058.75000007597,4014.534442608173,-165.23657,101.62824,-3.006003,13.289124,-4.445109,-2.5305505,-5.0265727,2.8881829,-4.8749228,8.020566,-7.7872577,0.06399577,2.7024124,0.25234792,0.31728828,0.40994817,0.33362758,0.20246935,0.22085345,0.43128327,0.56107485,0.52212816,0.39277276,0.29986387,0.2591046
..\file-birdsong\songs\songs\552450-0.wav,0.25706881009615384,3282.0241419275167,4738.38134765625,-112.19927,36.236225,-37.440243,42.217052,7.4215136,-19.286715,6.4777403,19.165625,-12.878196,4.365779,-2.0238397,3.990126,-4.2178316,0.1776659,0.24092406,0.24702284,0.25913045,0.28220016,0.27440026,0.32852542,0.31133774,0.30197197,0.21604311,0.15266344,0.16722272
..\file-birdsong\songs\songs\554192-0.wav,0.29852388822115383,3661.538582470561,5862.580190805288,-102.61623,39.887794,-35.52157,22.137629,-22.006836,6.5684934,6.4931517,8.626065,-2.9583566,11.127048,0.6354915,4.8711014,0.18160012,0.33177796,0.33704332,0.39301056,0.4050601,0.4093933,0.544839,0.5715379,0.4851405,0.5021768,0.54174274,0.5088227,0.44685465
..\file-birdsong\songs\songs\556688-0.wav,0.10665940504807692,1821.987398069179,3100.2015099158652,-45.753494,122.223694,-17.54317,13.19713,1.4359893,-15.132151,-10.691433,6.4159837,-20.016537,-10.500529,-9.712878,-7.6126504,-13.373322,0.25325054,0.24687207,0.4049147,0.5430988,0.54073447,0.78492385,0.48669174,0.4053948,0.4118249,0.33162394,0.2752342,0.2489271
..\file-birdsong\songs\songs\557029-0.wav,0.26064453125,2988.8397232788607,3854.9402794471152,-206.90993,-4.730947,-128.9544,10.546444,-35.435513,-50.69226,-28.784052,13.98213,-27.621729,-22.201674,-8.0726185,-12.7455015,-6.300764,0.20157494,0.22699179,0.25904098,0.36640164,0.4640985,0.57282215,0.63192695,0.2902876,0.09220129,0.07504219,0.13852751,0.20253971
..\file-birdsong\songs\songs\557135-0.wav,0.03643329326923077,1313.5000502003318,2833.76953125,-114.30506,132.14816,3.3531344,11.863706,9.405385,26.207253,12.749022,17.923166,5.0566926,18.841053,3.793072,12.718032,3.8602068,0.7290508,0.67595357,0.6607284,0.70019084,0.73779035,0.728459,0.6903958,0.7057317,0.7285556,0.75804543,0.7206683,0.732206
..\file-birdsong\songs\songs\557140-0.wav,0.06556865985576923,1332.8320814534443,2537.1910682091348,-124.33334,168.72806,4.2882104,20.106443,-11.112683,31.28599,11.273182,3.3971646,3.721686,6.459133,-3.2492092,8.965441,1.6762426,0.5695738,0.63623744,0.8023816,0.7858721,0.616402,0.59857017,0.57123446,0.49125567,0.47826764,0.49032447,0.48774424,0.53170216
..\file-birdsong\songs\songs\557836-0.wav,0.018160306490384616,1219.1383055343406,2863.0878155048076,-229.82648,104.1605,14.333518,36.453163,13.428273,13.970581,10.415056,22.561766,10.880512,14.412147,9.867513,13.843506,7.104839,0.78290606,0.6934697,0.6360574,0.64467764,0.6956246,0.71490794,0.67449284,0.7070585,0.76756305,0.784488,0.7660739,0.7904587
..\file-birdsong\songs\songs\557838-0.wav,0.11844200721153846,2441.04428556101,4716.185584435096,-132.85225,81.1399,17.018225,54.974297,-10.344642,24.57735,3.0749779,19.33934,5.271629,15.17105,-0.07243886,7.5691247,10.887994,0.42552194,0.3619362,0.54529124,0.688295,0.68301255,0.6163097,0.5065094,0.35011715,0.29566747,0.40168503,0.58374935,0.6487278
..\file-birdsong\songs\songs\558225-0.wav,0.27764798677884617,3561.2129383333654,4451.161545973558,-394.43762,-100.62349,-101.16211,69.02026,17.223816,-22.168205,0.26006436,16.611267,-13.881168,-3.3731098,7.077339,-1.4762096,-1.408439,0.25722432,0.26023686,0.24760225,0.38426533,0.5443624,0.6184691,0.46515647,0.24924055,0.25117162,0.18461677,0.10185668,0.15790838
..\file-birdsong\songs\songs\558357-0.wav,0.3228966346153846,4697.018098052506,6978.248572716346,-275.93848,-17.604784,-9.870702,42.21962,9.678112,-29.378502,23.228313,8.836782,-2.7823985,-8.208519,6.751178,10.587798,-7.9655557,0.28294936,0.20973653,0.42493647,0.39614302,0.3383245,0.3111066,0.3239603,0.19307816,0.19022462,0.17695323,0.17318642,0.19125059
..\file-birdsong\songs\songs\558722-0.wav,0.40837965745192306,4404.976740226404,5948.4645432692305,-268.0472,-0.0615394,-42.57358,39.390602,-70.24931,7.375642,-26.290817,-7.037998,-37.713028,-9.915619,-31.11297,-22.390482,-15.766318,0.2081939,0.19061589,0.18348879,0.20229807,0.3025692,0.3384377,0.2975579,0.2954859,0.45154715,0.47288272,0.55228883,0.33223805
..\file-birdsong\songs\songs\559014-0.wav,0.23978740985576924,3035.6614001553944,4288.2545823317305,-272.39697,14.36866,-90.87911,7.726101,-30.295523,-37.788666,-24.712193,5.09052,-16.251308,-18.807812,2.5965958,7.8460426,-2.7635596,0.32817236,0.4631052,0.34081906,0.27186227,0.39837992,0.6218023,0.5018279,0.21647699,0.10908089,0.122571945,0.14843526,0.22668317
..\file-birdsong\songs\songs\559279-0.wav,0.20589693509615384,2552.870571768056,3262.8600135216348,-290.9312,20.351233,-71.23203,59.36607,30.618254,-19.63201,-5.926058,-0.9694805,-8.553521,10.542365,-9.929262,-6.624069,-2.806783,0.15174918,0.13711354,0.22484864,0.25633308,0.22588526,0.22444792,0.24227802,0.22597778,0.21206236,0.29502127,0.35872403,0.2640142
..\file-birdsong\songs\songs\559314-0.wav,0.2095966045673077,2992.314834634271,5035.208270733173,-345.721,51.925587,-54.626156,-6.3130174,-13.360244,-19.902237,-4.6356854,8.15283,-5.5429115,-6.4694495,6.269751,3.6770847,-1.1892155,0.50828284,0.56723803,0.40144974,0.413827,0.49173436,0.46974418,0.37705216,0.40608492,0.3246639,0.31957152,0.38227674,0.44705984
..\file-birdsong\songs\songs\559516-0.wav,0.21483248197115384,3087.474365700303,4871.224646935096,-157.90591,30.343403,-41.749176,45.27836,32.404285,-5.9672213,-33.637245,4.798408,-26.64671,13.268692,-22.077063,-31.29222,-14.011666,0.110675395,0.1278549,0.13380809,0.13304953,0.27373677,0.5296754,0.40450612,0.4139314,0.5547749,0.46574274,0.27446488,0.15640785
..\file-birdsong\songs\songs\560427-0.wav,0.23177584134615384,2844.937086205328,3700.398137019231,-186.21767,64.99552,-38.465706,48.564766,35.009254,-15.698796,-3.045991,15.584026,-3.7460554,4.162411,0.2485699,-4.731887,-7.8060756,0.21800348,0.19981635,0.12238133,0.09237429,0.13182044,0.25582469,0.53357226,0.39204136,0.32449526,0.24386963,0.16329148,0.18315944
..\file-birdsong\songs\songs\561356-0.wav,0.217919921875,3013.842956118766,4246.016376201923,-360.03085,33.64017,-10.558584,50.61145,-33.41057,-13.693232,-17.227486,-23.692146,-19.270262,-22.448341,-24.994179,-19.917429,-15.298675,0.36273357,0.3588299,0.27219072,0.37438896,0.3127391,0.2533476,0.20654579,0.2977403,0.39295387,0.33691123,0.4310762,0.42273656
..\file-birdsong\songs\songs\56154-0.wav,0.0067007211538461535,717.2751830474717,1092.3959585336538,-236.03792,124.1802,27.672611,21.02734,6.186386,23.992294,2.4335673,18.354864,4.379881,10.190157,8.3268385,-5.351568,16.93531,0.7356759,0.79832625,0.8651104,0.9125356,0.94109285,0.93104506,0.8832903,0.8359589,0.769551,0.71724623,0.6762467,0.6519185
..\file-birdsong\songs\songs\56157-0.wav,0.06280048076923077,1769.9904486521891,3825.6219951923076,-182.19704,90.35951,1.4589149,50.905888,-4.032198,6.5818725,10.0465355,26.64414,-7.0850725,9.109546,4.575045,-1.7472532,8.555813,0.544199,0.49902767,0.51479506,0.5464088,0.6551541,0.65080833,0.73516786,0.67021483,0.591946,0.5564414,0.51109207,0.50252104
..\file-birdsong\songs\songs\562172-0.wav,0.3706017127403846,4510.3249936057755,7384.149451622596,-287.0274,-8.2472925,-7.551789,12.231326,-34.555325,-6.240549,-9.128298,0.5629996,-7.7267,-9.321295,-7.4908504,-3.257991,-11.343318,0.49910632,0.52362967,0.5622356,0.56870097,0.5199642,0.5777588,0.49743775,0.45357245,0.48681912,0.47512725,0.48920503,0.50835085
..\file-birdsong\songs\songs\562221-0.wav,0.24430213341346155,3520.71526213991,7099.000150240385,-63.286404,59.392887,-6.9336786,2.897352,-5.615305,17.23501,8.012122,7.199746,0.9544313,6.545647,-2.9513633,7.1137805,-8.359269,0.80341125,0.72315216,0.5428306,0.52810395,0.49757907,0.52283216,0.501309,0.48908016,0.5500488,0.64114714,0.5917144,0.6221446
..\file-birdsong\songs\songs\562223-0.wav,0.3315166766826923,4271.693685700413,6379.459885817308,-191.23296,-109.73411,-118.75731,-11.544371,-49.115166,-31.456707,-15.2335,10.4921465,-18.026234,-7.831763,-5.6424274,2.427952,-6.7600384,0.37744808,0.50242364,0.4396981,0.4205373,0.37399745,0.49031198,0.38871995,0.34157795,0.39867026,0.2934179,0.1434228,0.29331383
..\file-birdsong\songs\songs\562224-0.wav,0.33828125,4346.687080556836,6551.808330829327,-213.0298,-92.663704,-107.85179,-28.80554,-36.717648,-7.9533887,-6.2030168,5.165423,-20.764029,8.838634,9.3062315,6.7758746,-10.531017,0.22054917,0.16394609,0.27086893,0.38968402,0.4873797,0.5110821,0.5031968,0.41092733,0.35142538,0.32010645,0.29540336,0.3386577
..\file-birdsong\songs\songs\56229-0.wav,0.13891977163461539,2249.5411089289682,4437.413423978365,-69.60708,120.14162,-7.266099,28.468702,-6.540599,12.639765,-2.08572,19.994343,-14.095868,13.724018,-6.0159855,5.091855,-2.761401,0.4205684,0.3303397,0.33772337,0.336336,0.38099658,0.43699655,0.59708023,0.53811044,0.5331389,0.64212835,0.60242873,0.5333747
..\file-birdsong\songs\songs\562449-0.wav,0.35966796875,4875.1789948978585,8114.290677584135,-135.85327,-148.04424,-114.70637,-16.696661,-18.311287,-11.088623,-6.1411896,1.4890406,11.139199,-3.0365424,-0.47936365,18.106052,-14.320831,0.45648184,0.7020213,0.7220382,0.49630016,0.34431133,0.17590049,0.15857318,0.19404918,0.10319516,0.08320627,0.08020793,0.15253597
..\file-birdsong\songs\songs\563017-0.wav,0.25747445913461536,3684.031186157628,5916.3303786057695,-322.91882,20.115677,10.095239,46.12042,-19.666243,24.180273,20.103632,2.7993557,0.92874044,15.737639,0.15406112,3.1871219,9.346873,0.42393613,0.44484448,0.45506242,0.38318732,0.3358628,0.42595837,0.5633146,0.59925646,0.55300117,0.52879614,0.5353435,0.4939795
..\file-birdsong\songs\songs\563125-0.wav,0.2437237079326923,3223.7884334897176,4426.315542367788,-320.25342,10.12059,-85.58798,-13.208585,-41.871777,-25.961224,-15.825395,-8.0136,-4.608219,3.7941475,-7.70605,6.673601,4.242641,0.38412854,0.4334804,0.32073498,0.257413,0.22738442,0.25720385,0.32350788,0.31861815,0.32212332,0.337472,0.42816725,0.41597056
..\file-birdsong\songs\songs\563197-0.wav,0.2852088341346154,3786.890913442086,5745.307053786058,-350.8125,-99.75259,-129.62576,12.221892,27.710035,-14.30312,-1.462179,17.158754,-1.9075589,9.618565,-3.522476,-0.3366653,-6.8757777,0.38584548,0.54471904,0.5035199,0.5598673,0.42292723,0.3261273,0.39332315,0.33978224,0.262785,0.24245024,0.29121116,0.28464514
..\file-birdsong\songs\songs\563199-0.wav,0.27364783653846153,3636.3360505976298,4922.5730543870195,-315.63843,-162.18773,-143.41338,57.096416,23.4547,-12.167698,-2.065419,4.908521,8.174376,12.068614,-19.566238,-1.1891857,1.6915358,0.32979435,0.31141287,0.41321597,0.22781172,0.21020521,0.19368026,0.23630247,0.31383526,0.33592764,0.31230688,0.4269094,0.5726069
..\file-birdsong\songs\songs\563611-0.wav,0.338330078125,4268.660304111783,6041.14013671875,-235.58269,-162.39958,-143.96178,9.054333,3.3139668,-15.8766775,1.8527435,13.247901,1.8065125,18.641504,-4.7507806,-0.9497613,-0.86567056,0.28575888,0.36984444,0.47927815,0.3047178,0.2802833,0.26112002,0.37721807,0.46399572,0.5247284,0.5205912,0.35200903,0.34632978
..\file-birdsong\songs\songs\563612-0.wav,0.34387770432692305,4386.640985739306,6513.959585336538,-214.95198,-186.26569,-137.60411,19.082682,-11.395221,-22.010653,-4.353653,22.45548,2.5449905,12.822286,-6.7989545,16.968037,-15.244041,0.26730645,0.43554798,0.58332896,0.5408071,0.501355,0.38483128,0.39565954,0.46999323,0.4605023,0.28519207,0.27490026,0.22819045
..\file-birdsong\songs\songs\563615-0.wav,0.3287109375,4229.921051570042,5909.621957632212,-293.3759,-141.07254,-100.39469,35.28528,10.441975,-11.962742,-2.6372724,18.270542,2.090794,4.469853,-6.454553,3.7699256,-10.746644,0.15742911,0.32207966,0.3155301,0.47334024,0.31154943,0.18893588,0.11656944,0.11542216,0.27465156,0.34303766,0.27209198,0.2059148
..\file-birdsong\songs\songs\563619-0.wav,0.2689378004807692,3890.140694531191,6131.993689903846,-242.33551,-129.27744,-129.02179,4.835306,10.7645855,-7.311448,-18.97907,14.089458,4.869574,17.305746,-4.152176,2.864029,-7.74082,0.20217548,0.25103766,0.3169583,0.3488739,0.18251418,0.19506924,0.28695,0.33580694,0.38831362,0.3640081,0.23176157,0.2003169
..\file-birdsong\songs\songs\563816-0.wav,0.32930814302884615,3902.541858623954,5159.024188701923,-248.17706,-46.314827,-72.86987,56.315083,-34.49029,-6.2819643,-18.65627,-7.4816,-8.203387,-18.58957,-4.0494905,-8.443582,-9.544992,0.28664708,0.3078503,0.37756845,0.3823749,0.2885473,0.17833059,0.22897245,0.18386096,0.2013854,0.25330088,0.22506924,0.23568109
..\file-birdsong\songs\songs\564311-0.wav,0.26629732572115383,3542.4048929381133,4657.383375901442,-184.72832,-144.54689,-164.9888,11.777126,-10.555871,-37.224243,-11.903369,5.6400123,9.881145,10.38783,-2.2055526,6.17404,-2.8528376,0.44007143,0.45074874,0.58232665,0.6314539,0.46539497,0.4315127,0.43693027,0.3567249,0.34644318,0.39705685,0.4120548,0.32590002
..\file-birdsong\songs\songs\564312-0.wav,0.2599571814903846,3573.8908879806177,4957.440279447115,-211.47374,-141.74533,-149.8758,24.380337,3.0326755,-24.469564,-11.641693,12.701131,14.575825,8.307709,3.431451,4.85767,-7.190163,0.32020488,0.39516222,0.40569595,0.46147642,0.37542886,0.41558516,0.34595287,0.38800085,0.22205171,0.29868776,0.3149312,0.27710578
..\file-birdsong\songs\songs\564319-0.wav,0.29168419471153845,3724.51415791856,5148.920147235577,-332.65384,-109.06368,-104.892426,47.78268,21.673492,-27.38739,0.35971984,27.110432,-11.090593,0.82430595,1.2243459,-2.0629396,-7.3647556,0.21616647,0.25799438,0.18259518,0.32445702,0.4564275,0.27290672,0.5132467,0.30552626,0.123531826,0.12343336,0.112433255,0.16103029
..\file-birdsong\songs\songs\564324-0.wav,0.36307466947115385,4862.122446513685,7922.976449819712,-215.42953,-146.93333,-114.19276,-16.127876,-17.761917,-24.116846,-11.384878,14.350644,6.7757673,3.4719422,2.8983667,5.473893,-10.323507,0.3744299,0.47099748,0.43402582,0.55871755,0.7046327,0.53440666,0.2923871,0.34568566,0.2864011,0.28696448,0.32391563,0.33090553
..\file-birdsong\songs\songs\564544-0.wav,0.38489708533653844,4723.917224435995,7078.626427283654,-195.8384,-60.829224,-72.15987,-9.896849,-20.742657,-4.7201295,-35.036335,-1.5814478,0.26785937,3.5925364,-9.300612,-7.46122,-14.334,0.37486064,0.4010957,0.47501263,0.23780385,0.22802633,0.30728135,0.32350698,0.34347913,0.4481171,0.44431424,0.2959615,0.29004955
..\file-birdsong\songs\songs\564545-0.wav,0.31344275841346153,4311.863957997103,7298.182279146635,-242.16473,-146.99626,-127.78544,0.6736937,7.6252503,-16.519419,-7.385182,16.742897,15.192302,4.001273,-1.9558687,7.337391,-11.432692,0.2891516,0.49218243,0.5863673,0.504056,0.4494068,0.20782617,0.24741252,0.16426726,0.1724161,0.21069656,0.18561,0.23562674
..\file-birdsong\songs\songs\565240-0.wav,0.3979191706730769,4755.692886633839,5963.786245492788,-321.37637,-59.323235,-43.758286,38.429882,-44.751564,0.99547684,-4.353669,-5.2198534,-8.045614,9.515296,-6.678906,-2.4818447,7.1699066,0.23769036,0.17643748,0.24106874,0.08808117,0.07041919,0.08455115,0.1255574,0.2177016,0.49340156,0.2977952,0.2977902,0.34336987
..\file-birdsong\songs\songs\565242-0.wav,0.39181189903846153,4472.978134045315,5521.858661358173,-286.73657,4.6880007,-34.21909,46.405582,-45.520523,14.64588,-8.249632,-18.940968,2.7371597,-7.047391,-18.909159,0.03176563,-7.4470534,0.5577685,0.32829657,0.15841813,0.1438991,0.14124031,0.18486324,0.12346213,0.11931499,0.16218175,0.26932454,0.30556908,0.44290686
..\file-birdsong\songs\songs\57040-0.wav,0.22324969951923077,2933.9797741495986,4113.338716947115,-238.87518,52.903454,-24.444923,58.279472,10.626658,-12.572543,8.877019,21.649313,2.7935941,-4.5051847,0.54674673,17.339336,-12.282894,0.35153788,0.38655657,0.4099241,0.2331778,0.22967462,0.3872936,0.33445787,0.16050074,0.13288373,0.15275975,0.25081554,0.41052604
..\file-birdsong\songs\songs\58179-0.wav,0.21133939302884616,2963.7108152139385,4755.6907301682695,-242.23482,40.4634,-58.11188,33.50334,27.11618,-19.28437,-11.475994,30.142729,-2.7805068,-3.3416724,7.057336,3.9841454,-9.600205,0.290709,0.36232513,0.4816505,0.59669524,0.61897606,0.5040163,0.45317534,0.39607584,0.27201435,0.31232384,0.26693708,0.26065698
..\file-birdsong\songs\songs\61471-0.wav,0.44353590745192306,4809.471456363845,5862.994290865385,-252.86725,-51.09083,-43.04586,48.809647,-29.62828,43.483112,-7.4788995,3.1745756,-11.088837,11.808755,-0.4260782,-4.6396008,1.6598929,0.1179611,0.06374917,0.10472256,0.2508489,0.39740318,0.5059595,0.41369748,0.4380731,0.40791607,0.28631863,0.30645782,0.18457444
..\file-birdsong\songs\songs\61472-0.wav,0.3627178485576923,4166.894857309393,5312.820951021635,-296.73108,-12.065376,-45.27619,46.04219,-20.797443,23.484964,-12.666953,3.2750268,-0.5803157,7.008826,3.2026663,8.856593,-3.1075406,0.3305905,0.2611667,0.34873867,0.5013516,0.4510323,0.23976183,0.2308821,0.32463878,0.27697256,0.17917585,0.21972574,0.329578
..\file-birdsong\songs\songs\62772-0.wav,0.34432842548076925,4260.032437541386,6146.984112079327,-264.69928,-12.83924,8.316643,67.735916,-13.825415,12.465792,-3.3345253,22.963806,-4.7142735,6.54468,3.8178527,3.2341342,1.844716,0.30475754,0.20319636,0.18279034,0.34739697,0.31133476,0.30051804,0.2735209,0.22036044,0.24643598,0.22179021,0.31064904,0.38209713
..\file-birdsong\songs\songs\62782-0.wav,0.2740872896634615,3543.407717028472,5867.300931490385,-123.801506,72.63503,13.230889,13.67966,-32.219376,20.16522,-0.3053955,14.919115,-8.080944,10.5806055,0.957285,0.09829028,1.263178,0.31077152,0.23953171,0.26979798,0.3361421,0.3668643,0.4274288,0.42691764,0.34569362,0.3923317,0.56070906,0.62988734,0.379579
..\file-birdsong\songs\songs\66355-0.wav,0.3391902043269231,4171.047357066886,6436.108774038462,-322.40192,-5.5972695,-7.4753046,43.155247,-40.93942,13.428335,0.17441547,-5.3992243,-5.419225,4.148626,-7.3200326,1.5747308,1.3364459,0.5969654,0.56196535,0.6434877,0.50268334,0.42077062,0.45918182,0.5638649,0.6188243,0.5636206,0.56975454,0.5649314,0.5856152
..\file-birdsong\songs\songs\67466-0.wav,0.34896709735576925,4050.311742043977,5428.5205078125,-332.96832,-54.579746,-77.96969,50.803036,-40.780766,-15.832723,8.111937,-6.869385,-5.8358836,1.4606048,0.5571829,-0.37680387,-6.381685,0.2830088,0.3862306,0.23334204,0.20995797,0.24812753,0.29358548,0.4639329,0.60826313,0.50565934,0.4713902,0.47423095,0.32925865
..\file-birdsong\songs\songs\70119-0.wav,0.2695274939903846,3425.1849443921456,4809.606557992788,-314.08514,-19.67,-76.73133,28.186592,-18.175678,-53.23711,-19.02166,2.9787588,-29.748339,-16.54698,-9.667214,-0.20647666,-7.428506,0.2393023,0.23726973,0.40206853,0.43879485,0.42414102,0.44194564,0.37178952,0.32895687,0.30340692,0.33098593,0.24033412,0.1495221
..\file-birdsong\songs\songs\71208-0.wav,0.18546424278846155,2588.027328692871,3519.519230769231,-255.51205,61.12684,-41.661266,-1.1075275,28.847435,-3.7931738,-45.77841,-22.37202,-19.512564,-7.3785987,-23.009975,-13.478452,-13.49779,0.15527707,0.15826668,0.16830537,0.2530448,0.23549016,0.18346311,0.20789003,0.21429458,0.3249932,0.3598801,0.32702956,0.25068295
..\file-birdsong\songs\songs\72185-0.wav,0.23819861778846155,2976.084686572296,3562.005896935096,-267.3995,15.918038,-99.88062,-3.0607708,4.685328,-29.186869,-8.781349,-9.523949,-15.414771,-2.2393723,-16.035585,-21.070494,-1.1085109,0.21598756,0.25783294,0.31314448,0.1992235,0.10740719,0.087493025,0.18290822,0.3096985,0.48978722,0.2640459,0.18216403,0.15366043
..\file-birdsong\songs\songs\73428-0.wav,0.30105919471153847,3642.254075572115,4640.073993389423,-280.9889,69.63508,-6.3649554,5.7235484,-51.850098,19.490398,-9.850702,6.279235,4.6193275,13.526749,1.634729,-14.428207,17.806776,0.19486584,0.17134091,0.18523902,0.29159948,0.2870171,0.24880064,0.26999652,0.35183817,0.4532263,0.4147578,0.40208972,0.2737489
..\file-birdsong\songs\songs\75110-0.wav,0.18583984375,2846.5199312800964,4664.919996995192,-383.32187,65.597084,2.6285157,5.653443,-30.78397,3.8990521,-0.2863706,-14.021986,0.38779354,-7.7924676,-5.079358,-0.95651495,-9.575818,0.28334656,0.34189415,0.37068745,0.44535288,0.5751586,0.5692307,0.48827317,0.5024404,0.5068455,0.36882284,0.30379608,0.27178866
..\file-birdsong\songs\songs\76206-0.wav,0.3534893329326923,4844.209114447757,7174.697641225962,-454.06863,-62.31492,21.914091,62.352337,-23.566685,20.409021,-1.6174626,30.57117,7.6361074,7.6553335,5.1849313,10.466234,-6.0829663,0.45894337,0.44848698,0.48512363,0.6246389,0.7424123,0.60689926,0.46797466,0.40237072,0.35553208,0.35638028,0.3957836,0.39572766
..\file-birdsong\songs\songs\76471-0.wav,0.3039588341346154,4356.4628753003635,5718.0592698317305,-404.90628,-68.93455,0.76702625,62.57352,-24.908722,33.91098,19.093704,29.8669,11.842218,13.934009,2.1333642,10.470596,1.7794603,0.38570338,0.37670553,0.3825164,0.4269316,0.43692172,0.37912932,0.3057553,0.28506923,0.33787456,0.31962365,0.35867137,0.3373284
..\file-birdsong\songs\songs\77133-0.wav,0.2771033653846154,3339.676074040513,4606.366248497596,-289.58203,18.164932,-74.04306,47.58656,-20.740614,-33.65586,14.749755,-4.9482093,-20.0227,7.521865,-12.205921,-2.4408128,2.110028,0.21882327,0.23430501,0.2538773,0.26897737,0.37530038,0.20802268,0.28547567,0.39778826,0.6794043,0.42327765,0.33195418,0.24571276
..\file-birdsong\songs\songs\77904-0.wav,0.40540114182692305,4923.1355200415155,7218.178147536058,-462.00754,-66.05389,-44.531704,11.869862,-13.516093,22.541687,0.42676532,13.806454,-8.2441435,-5.6461134,-7.578035,5.5667257,1.6730783,0.34313634,0.41572315,0.35629874,0.33119297,0.40836272,0.42945084,0.4377423,0.5292228,0.48131466,0.4612077,0.40039918,0.34066957
..\file-birdsong\songs\songs\78015-0.wav,0.2532301682692308,3319.738997831684,5378.9113206129805,-246.98862,33.304794,-21.408165,50.917957,8.496996,-18.175972,-4.6657915,30.088165,-12.993673,-4.854997,5.953684,4.733574,-7.8701396,0.27855986,0.30286098,0.4328345,0.4775402,0.5814184,0.55316055,0.36021438,0.2900395,0.23277159,0.19487512,0.18202691,0.27136678
..\file-birdsong\songs\songs\78059-0.wav,0.28397310697115385,3498.334431737081,5165.981069711538,-246.16364,33.897224,-40.961246,11.402718,-34.610924,-17.921148,-16.788176,-29.799688,-12.039576,-0.29574984,-3.918614,7.4567266,9.248755,0.30857804,0.4163658,0.34483632,0.25408405,0.22099052,0.11700482,0.2089827,0.13217871,0.30014074,0.24276271,0.1472355,0.28287774
..\file-birdsong\songs\songs\78060-0.wav,0.4061673677884615,4592.292929477085,5894.548715444712,-289.3462,-15.12892,-30.710445,30.681643,-43.236965,-3.809516,-3.0858552,-10.259298,-2.627843,2.9609075,-12.06997,13.3684025,-6.322061,0.48307654,0.4089692,0.23470095,0.19698918,0.29709253,0.29894623,0.15551314,0.15198477,0.28210405,0.32978693,0.25678915,0.30726498
..\file-birdsong\songs\songs\78683-0.wav,0.3741661658653846,4923.670868759142,7387.0481520432695,-320.98935,-35.7183,13.902883,35.59487,-17.913322,7.537477,-10.037328,21.2005,-8.393168,6.0975285,-0.3067836,9.717799,-3.1846879,0.30289432,0.3200197,0.37153855,0.3414468,0.31314003,0.3393789,0.36571005,0.4157726,0.55528784,0.57243,0.3640214,0.28490305
..\file-birdsong\songs\songs\79086-0.wav,0.3923377403846154,4740.269038637303,7046.575082632212,-461.44464,-72.298965,-43.959393,15.264478,-46.45531,13.537434,9.330645,4.0962963,12.283467,11.170404,-2.6102643,3.3240747,-4.65125,0.5572027,0.60499173,0.5197533,0.5689602,0.50734746,0.4479346,0.39184433,0.33480555,0.34529433,0.45317048,0.5524741,0.539908
..\file-birdsong\songs\songs\79109-0.wav,0.3466233473557692,4417.493671924942,6886.2355393629805,-479.3238,-22.6532,7.296032,34.669453,-30.784435,19.813639,3.04094,-3.800055,9.799263,2.7016814,-7.7612886,17.590174,-3.793032,0.64545125,0.806921,0.5461877,0.41810608,0.42271224,0.4165941,0.42124566,0.42941877,0.4318124,0.4588187,0.6012716,0.53695005
